{"LSTM_0_inner_hidden_kernel": [[0.05989832431077957, -0.05363842472434044, 0.07519565522670746, 0.10935868322849274, 0.19296221435070038, 0.16252216696739197, 0.2944401204586029, 0.05206701159477234, 0.09997966885566711, -0.15628895163536072, -0.10962723940610886, 0.006756359711289406, 0.1822935938835144, -0.1616821587085724, 0.25065237283706665, 0.17911763489246368, 0.18864686787128448, 0.27363085746765137, -0.08206364512443542, 0.20115366578102112, 0.11423119157552719, -0.004776604473590851, 0.0006304798880591989, 0.004713684786111116, 0.061260759830474854, -0.492509663105011, -0.10054295510053635, -0.14793603122234344, -0.1095142588019371, 0.050425540655851364, -0.02895263582468033, 0.16309399902820587, 0.05332907661795616, -0.15466934442520142, 0.022733096033334732, 0.18257716298103333, -0.03310570865869522, 0.13296395540237427, 0.13423414528369904, -0.01849164254963398, -0.25936052203178406, 0.270107239484787, 0.35566607117652893, 0.21503272652626038, 0.29726526141166687, 0.06127290427684784, 0.14690420031547546, 0.30161505937576294, 0.14018262922763824, 0.0034163198433816433, 0.259126752614975, 0.1703571081161499, -0.0523478239774704, 0.10479088127613068, 0.17364516854286194, 0.15723684430122375, 0.0041229138150811195, 0.05805738642811775, 0.11545003950595856, -0.33290722966194153, 0.024360382929444313, -0.10803046822547913, -0.02602081373333931, 0.07496273517608643, 0.11451780050992966, 0.38844195008277893, 0.0381631925702095, 0.052105408161878586, -0.057591311633586884, -0.027776731178164482, 0.12628048658370972, 0.30770736932754517, -0.04103894159197807, -0.027009479701519012, 0.12381773442029953, 0.01943780481815338, 0.20746342837810516, -0.16327983140945435, 0.11344053596258163, 0.1001105010509491, 0.20124176144599915, 0.14669089019298553, -0.0745442658662796, 0.29368704557418823, -0.03933457285165787, 0.19398300349712372, 0.2161100059747696, 0.10897361487150192, 0.3154588043689728, -0.05020460858941078, 0.11787917464971542, 0.06735681742429733, -0.09154975414276123, 0.06642425805330276, 0.18966542184352875, 0.10332458466291428, 0.1535496562719345, 0.13902319967746735, 0.16990697383880615, 0.13937562704086304, 0.0866675078868866, 0.029672909528017044, -0.00976734422147274, 0.11790404468774796, 0.23085184395313263, 0.19314751029014587, -0.03359716013073921, 0.3172558546066284, 0.046384863555431366, 0.09713023155927658, 0.17753030359745026, 0.03668983280658722, -0.25437939167022705, 0.24817517399787903, 0.11588543653488159, 0.026142094284296036, 0.14112867414951324, 0.00880490429699421, -0.2090650051832199, 0.20808018743991852, 0.04420462250709534, -0.08997058123350143, -0.25680139660835266, 0.15673446655273438, 0.01985442079603672, -0.3404739797115326, 0.2132892906665802, -0.0026057157665491104, -0.010458141565322876, -0.08045504987239838, 0.021466322243213654, -0.04380149394273758, -0.0165569931268692, -0.006197206676006317, 0.03222384303808212, 0.03972519189119339, -0.010178133845329285, 0.08846934884786606, 0.0668608620762825, -0.10231535881757736, -0.030604250729084015, 0.059476546943187714, -0.08802412450313568, -0.027860313653945923, -0.07617879658937454, 0.06480369716882706, 0.006467863917350769, -0.043904438614845276, 0.05273126810789108, -0.10368913412094116, -0.007811695337295532, 0.09349394589662552, -0.09826773405075073, 0.025434337556362152, 0.006887547671794891, -0.024184025824069977, -0.07207424938678741, 0.03397255390882492, 0.06591344624757767, 0.07499866932630539, 0.10674958676099777, -0.07926926761865616, 0.0063143521547317505, 0.06341821700334549, 0.00349484384059906, -0.07557113468647003, 0.020521216094493866, -0.07154196500778198, -0.06956009566783905, 0.06029459089040756, 0.026782460510730743, -0.04818173497915268, -0.0839785635471344, 0.027476854622364044, 0.10238098353147507, -0.01354140043258667, 0.0707978680729866, -0.0069215744733810425, -0.07663482427597046, -0.09441865980625153, -0.057250525802373886, 0.08062923699617386, -0.04638969898223877, -0.060378823429346085, -0.06946158409118652, 0.0065052807331085205, 0.0168614462018013, 0.06362204998731613, 0.01687464863061905, 0.0052469149231910706, -0.04197035729885101, -0.04684198275208473, -0.02185281366109848, -0.07223144173622131, 0.04123678058385849, -0.04637167975306511, 0.07933560758829117, 0.07838555425405502, -0.047818124294281006, -0.09914910793304443, 0.0799383744597435, -0.06539113819599152, -0.06381068378686905, 0.07394377142190933, -0.05051039531826973, -0.034207239747047424, -0.07024624943733215, 0.07247193902730942, -0.017169594764709473, 0.09644918888807297, 0.016851253807544708, 0.029550455510616302, -0.09433434158563614, -0.030049048364162445, 0.061874352395534515, -0.008769996464252472, 0.010399416089057922, 0.00866197794675827, 0.08353815227746964, 0.01770678162574768, 0.043227605521678925, 0.011397399008274078, 0.04025714844465256, -0.025669313967227936, 0.09360145777463913, -0.09156308323144913, -0.0866742730140686, -0.04607030749320984, -0.03255125880241394, 0.08122282475233078, 0.07229075580835342, 0.0035652369260787964, 0.050874821841716766, -0.090603768825531, 0.0748717412352562, -0.06822584569454193, 0.05546175688505173, -0.01904360204935074, -0.05414654314517975, -0.06110278517007828, 0.10656624287366867, -0.043007999658584595, -0.06405583024024963, 0.035061828792095184, -0.07256069779396057, 0.03993915766477585, 0.02826646715402603, 0.09943533688783646, 0.03687555342912674, -0.008073382079601288, -0.04276973754167557, 0.08182413130998611, 0.09577567130327225, -0.0041273534297943115, -0.029774054884910583, -0.04095200449228287, 0.07790693640708923, 0.07746641337871552, 0.05023464187979698, -0.082539401948452, -0.03518129512667656, 0.168251171708107, -0.11414223164319992, -0.08552353084087372, -0.05277124047279358, -0.11066203564405441, 0.038018710911273956, 0.09925229847431183, -0.004138959106057882, 0.15765181183815002, -0.12044130265712738, -0.11784490197896957, 0.07334769517183304, -0.13467690348625183, 0.10457667708396912, 0.20543155074119568, -0.05455158278346062, -0.07033230364322662, 0.13262337446212769, -0.004229405429214239, 0.1129772961139679, -0.13692697882652283, -0.04915698990225792, -0.1019144058227539, 0.07551535218954086, -0.10541914403438568, -0.030714619904756546, -0.16235199570655823, -0.041746705770492554, -0.13206136226654053, 0.14780719578266144, -0.017842572182416916, 0.008789383806288242, -0.0065551381558179855, 0.09425509721040726, -0.23211896419525146, -0.16611172258853912, 0.16026310622692108, -0.21101616322994232, 0.1332750767469406, -0.17467476427555084, -0.05355257913470268, -0.16786208748817444, -0.21678157150745392, 0.17206747829914093, -0.03022492490708828, -0.0860227718949318, 0.05387375131249428, 0.10774585604667664, 0.12799552083015442, 0.06651093065738678, -0.05267263203859329, -0.0376095175743103, 0.05943254381418228, 0.02362178824841976, 0.06421396136283875, 0.13710267841815948, 0.011764147318899632, 0.07379747182130814, 0.08731202781200409, 0.013223618268966675, -0.22683493793010712, -0.17704050242900848, -0.136561781167984, -0.06252071261405945, 0.035148173570632935, 0.08388014137744904, 0.1678624153137207, 0.09419532120227814, -0.04455054923892021, 0.06079369783401489, 0.07643760740756989, 0.145110622048378, 0.03280162811279297, -0.04428815096616745, -0.07231640070676804, 0.011207439936697483, 0.095595583319664, -0.03575613349676132, -0.23595808446407318, 0.16438579559326172, -0.16976012289524078, -0.2081468105316162, -0.08744169771671295, 0.04756760224699974, -0.03742263466119766, -0.05293458327651024, -0.12002543359994888, -0.02764766849577427, -0.16946235299110413, 0.05940496549010277, -0.1322280764579773, 0.008827959187328815, -0.005492904223501682, 0.08907253295183182, 0.1695197969675064, -0.0812729001045227, -0.005703945178538561, 0.06796398013830185, -0.0782826766371727, -0.1082848459482193, 0.0673362985253334, -0.08344852179288864, -0.16921639442443848, 0.07054795324802399, -0.03188415989279747, 0.041353967040777206, -0.09310472011566162, -0.19928590953350067, -0.169279545545578, 0.19416604936122894, 0.14317205548286438, -0.13645939528942108, -0.05197514221072197, 0.1961643248796463, 0.13453184068202972, -0.014678794890642166, 0.08783084154129028, -0.12950019538402557, 0.24518968164920807, 0.01242044661194086, -0.1619374305009842, 0.04027056694030762, 0.012766961008310318, 0.10340553522109985, 0.0012532424880191684, 0.050281696021556854, 0.04105715453624725, 0.1246577575802803, 0.2633782625198364, 0.32367977499961853, 0.04064970463514328, -0.040686264634132385, -0.23068584501743317, -0.12398910522460938, 0.1385762244462967, -8.542882278561592e-05, -0.10884663462638855, 0.10235905647277832, 0.26807132363319397, 0.1688600778579712, 0.25641778111457825, -0.22482053935527802, 0.07165313512086868, 0.10201405733823776, -0.017794528976082802, 0.01826779916882515, 0.08034873753786087, -0.006996493320912123, -0.39636853337287903, -0.0782044306397438, -0.21821607649326324, -0.08531678467988968, 0.08948440849781036, 0.014873786829411983, 0.05502435564994812, 0.009092703461647034, -0.17053858935832977, 0.10741709917783737, 0.02487562969326973, 0.009485960938036442, 0.12698428332805634, 0.09477678686380386, -0.008589552715420723, -0.25923269987106323, 0.20618416368961334, 0.3010958433151245, 0.022143375128507614, 0.3064838647842407, 0.006899700034409761, 0.09684886783361435, 0.23046870529651642, 0.18342022597789764, 0.02452007494866848, 0.20613332092761993, 0.059004757553339005, -0.16912898421287537, 0.027733048424124718, 0.20045419037342072, 0.07272578775882721, 0.007638868410140276, -0.004645028151571751, 0.023449761793017387, -0.2742334008216858, 0.050514813512563705, -0.13412365317344666, -0.0396394357085228, 0.0515732541680336, 0.1666264683008194, 0.495744526386261, 0.0887085348367691, 0.06570853292942047, -0.08925227075815201, -0.05571049451828003, 0.10344696789979935, 0.2880219519138336, -0.012881646864116192, 0.068461574614048, 0.20616689324378967, -0.0021099308505654335, 0.24031196534633636, -0.09047730267047882, 0.2090628445148468, 0.1337042599916458, 0.02606647089123726, 0.011112654581665993, -0.1056133508682251, 0.46109309792518616, -0.04271022975444794, 0.08656269311904907, 0.29890236258506775, 0.0187040064483881, 0.06652078777551651, 0.13968104124069214, 0.18963848054409027, 0.015457975678145885, 0.00012282561510801315, 0.0882524847984314, 0.20374535024166107, 0.1257779598236084, 0.15357300639152527, 0.05243914574384689, 0.1506578028202057, 0.04123527556657791, 0.08038848638534546, -0.025917038321495056, 0.027138667181134224, 0.11330576241016388, 0.18892373144626617, 0.12026910483837128, 0.006533320993185043, 0.2863718569278717, 0.14117753505706787, 0.11402818560600281, 0.03296339884400368, 0.12374739348888397, -0.09413280338048935, 0.3134203553199768, 0.050046905875205994, 0.005022913217544556, -0.004113168455660343, -0.005907353479415178, -0.22060826420783997, 0.09690234065055847, 0.11305470764636993, -0.06769107282161713, -0.20952822268009186, 0.03941666707396507, -0.0247160904109478, -0.39160779118537903, 0.06860002130270004, -0.10527485609054565], [0.12629079818725586, 0.0004982395330443978, 0.14478397369384766, -0.06068003177642822, 0.0754702016711235, 0.28602713346481323, 0.2741580009460449, 0.18902316689491272, 0.07461681216955185, -0.07326804846525192, -0.040887098759412766, 0.08895205706357956, -0.001431015320122242, -0.28262782096862793, 0.4015420377254486, 0.32792308926582336, 0.18336418271064758, 0.13626234233379364, -0.09114506840705872, -0.03091186285018921, 0.12929479777812958, -0.00309986574575305, 0.12273040413856506, 0.3719562888145447, -0.0829862505197525, -0.11339783668518066, -0.11576881259679794, 0.05703800544142723, -0.19422858953475952, 0.24976618587970734, 0.09509984403848648, 0.12872110307216644, 0.15685418248176575, -0.08322203159332275, -0.04613116756081581, 0.3495640754699707, 0.04369625449180603, 0.22776958346366882, 0.2622140049934387, -0.06792168319225311, -0.34467771649360657, 0.28163596987724304, 0.18224242329597473, 0.17534470558166504, 0.21193569898605347, -0.0917024165391922, 0.02318599820137024, 0.15915198624134064, 0.3107672333717346, 0.13197968900203705, 0.24724067747592926, 0.2219042330980301, -0.16598252952098846, 0.10002882033586502, 0.17712001502513885, 0.14316001534461975, 0.04699317738413811, -0.09988291561603546, 0.17189981043338776, -0.3141016364097595, 0.1280231922864914, 0.05027458816766739, 0.1864396631717682, 0.07463917881250381, 0.17635615170001984, 0.4316084384918213, 0.08616800606250763, 0.02991851605474949, -0.10761963576078415, -0.23893338441848755, 0.18046292662620544, 0.1882258504629135, -0.12175726145505905, 0.0030803661793470383, 0.006205771584063768, 0.08936305344104767, 0.26927927136421204, -0.010805419646203518, 0.12991878390312195, 0.12549950182437897, 0.09675492346286774, 0.1367826908826828, -0.019462687894701958, 0.24345599114894867, -0.048753976821899414, 0.05492810159921646, 0.1721010059118271, 0.16376152634620667, 0.32193756103515625, 0.11795256286859512, 0.1266402006149292, -0.0862288624048233, 0.04513271898031235, 0.1483990103006363, 0.13549010455608368, 0.19781608879566193, 0.14732693135738373, 0.07726646214723587, 0.21619918942451477, -0.0791143849492073, 0.07362554967403412, -0.11821813136339188, -0.011899629607796669, 0.04708396643400192, 0.16397853195667267, 0.06621582806110382, 0.13873623311519623, 0.2397608458995819, 0.1975460797548294, -0.011140342801809311, 0.15541262924671173, 0.10299608111381531, -0.2200515866279602, 0.21307319402694702, 0.10295357555150986, -0.1238144040107727, 0.30717551708221436, 0.14905700087547302, -0.2368561029434204, 0.16245663166046143, 0.12569887936115265, -0.09010820090770721, -0.22810164093971252, 0.03627946972846985, 0.1093076765537262, -0.12342951446771622, 0.17380093038082123, -0.09017706662416458, -0.020375430583953857, -0.052754487842321396, -0.08836185932159424, 0.09093771129846573, -0.07556430250406265, -0.03049784153699875, 0.009799480438232422, 0.050735123455524445, -0.007583223283290863, -0.08865416049957275, -0.09742385149002075, 0.02238299697637558, 0.08723177760839462, -0.05981704220175743, 0.008912421762943268, -0.036321647465229034, -0.026599779725074768, 0.023957334458827972, -0.1052531823515892, -0.000402890145778656, 0.025267593562602997, -0.0071508437395095825, -0.014047898352146149, -0.028985843062400818, 0.04802317172288895, 0.01430831104516983, -0.028686560690402985, 0.009630672633647919, 0.04326667636632919, 0.017123408615589142, -0.07371672987937927, 0.10641602426767349, 0.03641503304243088, 0.010120734572410583, 0.07314207404851913, 0.08530666679143906, 0.07259806245565414, -0.08132225275039673, -0.08639347553253174, 0.03712307661771774, -0.05631350725889206, -0.10236289352178574, 0.08139161020517349, -0.021132342517375946, 0.035012148320674896, -0.06279429793357849, -0.05991631746292114, -0.09705475717782974, -0.04742693156003952, 0.04584328085184097, 0.010420441627502441, 0.016876257956027985, 0.012784995138645172, -0.049600884318351746, -0.06528343260288239, 0.03321858495473862, -0.08129334449768066, -0.008949503302574158, -0.09108059108257294, 0.10152747482061386, 0.07429905980825424, -0.018482662737369537, -0.08683688938617706, 0.04851425439119339, 0.03767552226781845, -0.07816135883331299, 0.020421303808689117, -0.06841328740119934, 0.043880753219127655, -0.08158528804779053, -0.04509248584508896, -0.05379215627908707, 0.09108477085828781, -0.05561758577823639, -0.09778241068124771, -0.07399003207683563, -0.010512687265872955, -0.046224307268857956, -0.08712561428546906, 0.07531417161226273, -0.016756102442741394, 0.07382562011480331, -0.052586957812309265, 0.06570515781641006, -0.05592917650938034, -0.06911586225032806, 0.0332680270075798, -0.07003182172775269, -0.06479872763156891, 0.1066998764872551, -0.04320301115512848, 0.0024443790316581726, -0.02982483059167862, -0.09491141885519028, -0.10340529680252075, -0.06488798558712006, -0.06421242654323578, 0.0738140419125557, 0.061181239783763885, -0.003703586757183075, 0.042508937418460846, 0.04658433049917221, -0.05116131156682968, -0.0754566416144371, 0.05770996958017349, -0.1058625727891922, -0.1019400954246521, -0.09104921668767929, 0.08082232624292374, -0.047706715762615204, -0.050000179558992386, -0.018268540501594543, 0.08057255297899246, -0.07555589079856873, 0.025216959416866302, -0.0005859211087226868, -0.09232264757156372, -0.06917927414178848, -0.005329594016075134, 0.014349885284900665, 0.10469058901071548, 0.07810506969690323, 0.002209022641181946, -0.056261591613292694, -0.08754907548427582, -0.020474806427955627, 0.09043877571821213, -0.0712880790233612, -0.11426301300525665, -0.05243471637368202, 0.12967395782470703, -0.037711262702941895, 0.10240001976490021, 0.05229203402996063, -0.1487514078617096, -0.004732574336230755, 0.06539037823677063, -0.2651118338108063, -0.00047932739835232496, 0.099091075360775, 0.011482227593660355, 0.1702347993850708, -0.03528043255209923, -0.2889268100261688, -0.048996783792972565, -0.03018999472260475, 0.11523936688899994, 0.149617999792099, 0.022247541695833206, 0.005081048235297203, 0.1376628279685974, 0.08968082070350647, 0.21074511110782623, -0.046823326498270035, 0.03811649605631828, -0.08939162641763687, -0.09590889513492584, 0.09422889351844788, -0.0742204412817955, -0.19742204248905182, 0.08306864649057388, -0.00034658543881960213, 0.20424915850162506, 0.0029777095187455416, -0.06267465651035309, 0.08355803787708282, 0.09500856697559357, -0.1341352015733719, -0.06865771114826202, 0.06677382439374924, -0.09484081715345383, -0.00981295108795166, -0.14967995882034302, -0.06507093459367752, -0.09805401414632797, 0.052068550139665604, 0.1864166259765625, 0.05499756708741188, 0.04457656666636467, 0.04005460441112518, 0.13525694608688354, 0.12668761610984802, 0.08274400979280472, 0.17100687325000763, 0.08876314759254456, -0.09312742203474045, 0.08283031731843948, -0.05039580166339874, 0.11325033009052277, 0.03225943446159363, -0.1327255219221115, 0.13106092810630798, -0.050395142287015915, -0.21971426904201508, -0.06776474416255951, -0.09242178499698639, 0.05374521389603615, 0.1736883968114853, -0.08858217298984528, 0.10003745555877686, 0.07839003950357437, -0.24144625663757324, 0.0359044149518013, -0.13726191222667694, 0.11686490476131439, 0.11166156083345413, 0.013432454317808151, -0.04712521657347679, 0.0038561662659049034, 0.2268332988023758, -0.15369145572185516, -0.14071178436279297, 0.20353788137435913, 0.017506562173366547, -0.21071186661720276, -0.13831926882266998, 0.11129097640514374, 0.03537600859999657, -0.24669231474399567, -0.10019463300704956, -0.07668158411979675, -0.11643420904874802, -0.152769535779953, -0.04802652820944786, -0.023264918476343155, -0.1340968906879425, 0.04553810879588127, 0.1101825088262558, -0.07758105546236038, 0.01241355575621128, 0.06602730602025986, 0.059763118624687195, -0.017234159633517265, 0.14535371959209442, 0.024638064205646515, -0.2114320546388626, 0.2531792223453522, -0.10291340947151184, 0.05516824126243591, -0.016517460346221924, -0.21029886603355408, -0.00900056678801775, 0.10780142992734909, 0.005371700972318649, -0.048766884952783585, -0.07421564310789108, 0.13564588129520416, 0.14114761352539062, 0.17161127924919128, 0.06694647669792175, -0.189102903008461, 0.02187463827431202, 0.1336921900510788, 0.01389663852751255, 0.06378103047609329, -0.05069969967007637, -0.01966731622815132, 0.07756703346967697, 0.03210722282528877, -0.03748183697462082, 0.018838848918676376, 0.4040507674217224, 0.3039831817150116, 0.24513214826583862, 0.08986526727676392, -0.07076727598905563, -0.07314088940620422, 0.1354372799396515, 0.02472744882106781, -0.25952833890914917, 0.4183359146118164, 0.2798908054828644, 0.1143098846077919, 0.14593739807605743, -0.13662037253379822, -0.05004062131047249, 0.2510537803173065, -0.025839826092123985, 0.005024951416999102, 0.22756817936897278, -0.033782489597797394, -0.21758845448493958, -0.26400017738342285, -0.0648980662226677, 0.04384321719408035, 0.2216179072856903, 0.06303660571575165, 0.15744897723197937, 0.19674371182918549, -0.0794726088643074, 0.0204720851033926, 0.3564704954624176, -0.09912630915641785, 0.26611897349357605, 0.1748504340648651, -0.06739187985658646, -0.4043647348880768, 0.2789856791496277, 0.14991000294685364, 0.22076503932476044, 0.22827741503715515, -0.12453413754701614, 0.006992269307374954, 0.21505488455295563, 0.2500322461128235, 0.027168238535523415, 0.24115517735481262, 0.28329798579216003, -0.11376431584358215, 0.1595337688922882, 0.0448528416454792, 0.06532150506973267, 0.09586182981729507, 0.005879363510757685, 0.08797644078731537, -0.41789761185646057, 0.022995587438344955, 0.01737455278635025, 0.14775033295154572, 0.03596697747707367, 0.0021128461230546236, 0.49093618988990784, 0.10220085829496384, 0.12077273428440094, -0.20526529848575592, -0.3216705918312073, 0.1451319009065628, 0.1898396909236908, 0.04424376040697098, 0.022306615486741066, 0.03727290779352188, 0.030073076486587524, 0.20618227124214172, 0.001170614967122674, 0.21950484812259674, 0.0891316756606102, 0.1684584766626358, 0.05623166635632515, 0.006427059415727854, 0.21070066094398499, -0.10613974928855896, 0.19495846331119537, 0.17946848273277283, 0.2418041080236435, 0.20553430914878845, 0.2797924280166626, 0.04693547636270523, -0.05458192527294159, 0.1721234917640686, 0.17826969921588898, 0.17772087454795837, 0.1533326506614685, 0.27733054757118225, 0.10148930549621582, 0.26563769578933716, -0.036729663610458374, 0.05891464650630951, -0.040649425238370895, -0.10901892930269241, 0.06054968014359474, 0.12580832839012146, 0.05984942242503166, 0.02584642358124256, 0.15726825594902039, 0.10197646915912628, 0.06254526972770691, 0.20082184672355652, 0.08655162155628204, -0.2529900372028351, 0.1426428109407425, 0.197462797164917, -0.10835009813308716, 0.11437146365642548, 0.19960623979568481, -0.19577042758464813, 0.30744361877441406, 0.10031619668006897, -0.041533879935741425, -0.151462122797966, 0.14874227344989777, 0.10269472002983093, -0.22474552690982819, 0.2468235343694687, -0.07771529257297516], [-0.04544913023710251, -0.03767279535531998, 0.15074612200260162, -0.06683539599180222, -0.31025785207748413, 0.247139111161232, -0.18480262160301208, 0.16161946952342987, 0.28142833709716797, -0.23345433175563812, 0.12070021778345108, 0.04284501448273659, -0.10804557800292969, -0.33339163661003113, 0.21034365892410278, 0.25044137239456177, 0.18088622391223907, -0.1723208874464035, -0.10761614143848419, -0.04840352013707161, 0.16965530812740326, -0.13718204200267792, 0.1297689527273178, 0.25063246488571167, -0.12992314994335175, 0.05253516510128975, -0.2851358652114868, 0.05640699341893196, -0.03844258561730385, 0.21234989166259766, 0.06808256357908249, 0.0006912974640727043, 0.2202463150024414, -0.004764519166201353, 0.14800985157489777, 0.19945675134658813, -0.09543339908123016, 0.18417644500732422, 0.05607868731021881, -0.12116196006536484, 0.06333477795124054, 0.00501584867015481, 0.023666316643357277, 0.02101113088428974, 0.04209542274475098, -0.06008140742778778, -0.07747866213321686, -0.2747008800506592, 0.24337811768054962, 0.1309538334608078, 0.10366437584161758, 0.02000182494521141, 0.04823968559503555, 0.0020119911059737206, 0.11579163372516632, 0.01277567446231842, 0.015444409102201462, 0.03761463612318039, 0.09835176914930344, -0.39261898398399353, -0.0010689699556678534, -0.11971455067396164, -0.000635895412415266, -0.11508588492870331, -0.024547850713133812, 0.5212293863296509, 0.39667466282844543, -0.0482160821557045, -0.07357572764158249, -0.3306049108505249, 0.04894557222723961, 0.17440922558307648, -0.06318572163581848, -0.47965121269226074, -0.018193267285823822, 0.1704367697238922, 0.04906853660941124, 0.15121537446975708, -0.021569516509771347, 0.09418530017137527, 0.015433724969625473, -0.00487557053565979, -0.15687966346740723, 0.08068656176328659, 0.08140888065099716, -0.14136432111263275, 0.21513813734054565, 0.1483660638332367, 0.346035897731781, 0.27328935265541077, -0.07572437822818756, -0.032074589282274246, 0.1232764720916748, 0.034648120403289795, 0.1274133324623108, -0.08478352427482605, 0.2116125375032425, 0.048402950167655945, 0.29339247941970825, -0.4148373305797577, -0.294931024312973, -0.07966573536396027, -0.13810084760189056, -0.11659269779920578, -0.17630010843276978, 0.008788345381617546, 0.3630605638027191, -0.10543683916330338, 0.10583414137363434, 0.05950114503502846, 0.06146497651934624, 0.20092442631721497, -0.15734583139419556, 0.036267250776290894, -0.032269369810819626, -0.13133713603019714, 0.5400872826576233, 0.09264978021383286, -0.3200221657752991, 0.2114315927028656, -0.14378558099269867, -0.07682789117097855, -0.3522489666938782, 0.06979698687791824, 0.14295054972171783, 0.27681440114974976, 0.15338259935379028, 0.13618682324886322, -0.07051727175712585, -0.0295160710811615, 0.09620172530412674, -0.10560081154108047, 0.08734721690416336, 0.04952184110879898, -0.015210740268230438, -0.014598444104194641, 0.08866576105356216, -0.08220678567886353, -0.06714025884866714, 0.04561970382928848, 0.05120844393968582, -0.021922320127487183, 0.01078813523054123, 0.07150033861398697, 0.10284542292356491, -0.08591526746749878, -0.048080191016197205, -0.05664174258708954, 0.07999055832624435, -0.0021983161568641663, -0.09462989866733551, -0.08372003585100174, -0.0415814071893692, 0.062127016484737396, 0.09958439320325851, 0.07196890562772751, -0.05334259942173958, -0.08202773332595825, 0.04072781652212143, -0.04221993684768677, -0.01627618819475174, 0.04402665048837662, -0.007700644433498383, -0.08116160333156586, -0.060333121567964554, -0.013185538351535797, 0.07888411730527878, 0.04885449260473251, -0.023286134004592896, 0.04820678383111954, 0.06171222776174545, 0.08460018783807755, 0.05532752722501755, -0.030636876821517944, -0.05453750491142273, -0.052776969969272614, -0.038824111223220825, -0.020808622241020203, 0.0015686377882957458, 0.09746965020895004, -0.029098905622959137, 0.013306431472301483, 0.042243592441082, -0.020206056535243988, 0.05094825476408005, 0.0040732622146606445, 0.0501486137509346, -0.013161525130271912, 0.07802792638540268, -0.03149636089801788, -0.0016475170850753784, -0.0307009294629097, -0.03486839681863785, -0.012552566826343536, 0.04337940365076065, -0.09608972817659378, -0.0386839285492897, 0.0389442965388298, 0.047115080058574677, 0.004228614270687103, -0.07894118875265121, -0.07375317811965942, 0.011379584670066833, -0.06794534623622894, -0.02089986950159073, 0.08027764409780502, -0.007155455648899078, -0.07253910601139069, 0.10323763638734818, 0.06778528541326523, 0.0017041787505149841, -0.08702483773231506, -0.0893905833363533, 0.051699720323085785, -0.0493256114423275, -0.04414106905460358, -0.002722911536693573, -0.0591333769261837, -0.0746784433722496, -0.0017510801553726196, 0.10361646860837936, -0.051382724195718765, 0.08587496727705002, -0.03361357003450394, 0.06082407385110855, 0.0693599060177803, 0.019142471253871918, 0.10292737931013107, -0.028317369520664215, -0.032457590103149414, 0.004415109753608704, -0.06872518360614777, -0.04639000445604324, -0.09333549439907074, 0.08300594240427017, 0.04897402971982956, -0.07692434638738632, -0.04931957274675369, 0.06382416933774948, -0.06190522387623787, -0.10381308197975159, -0.017628759145736694, 0.0827108845114708, 0.005631193518638611, 0.0888366773724556, -0.07772135734558105, 0.044504813849925995, 0.017900697886943817, 0.04147692769765854, 0.008333943784236908, -0.09417374432086945, 0.0048634931445121765, -0.06250294297933578, 0.003185190260410309, -0.07352686673402786, -0.04247000068426132, -0.08369620144367218, 0.004219219088554382, 0.0355602465569973, 0.005447546020150185, 0.0735585168004036, 0.08521247655153275, 0.08839558809995651, -0.0977223739027977, 0.05287282541394234, -0.21343384683132172, -0.07028553634881973, -0.02818259224295616, 0.11274071037769318, 0.016238238662481308, 0.18861916661262512, -0.4304540753364563, -0.06071837991476059, -0.06504102796316147, -0.015463263727724552, 0.17964167892932892, -0.1486852616071701, -0.11123339831829071, 0.3364969491958618, -0.005252483766525984, 0.23031572997570038, -0.1990618258714676, -0.00016844173660501838, 0.11763955652713776, -0.02350044436752796, 0.1579822599887848, -0.0010675436351448298, -0.2076135128736496, 0.010891750454902649, -0.010022757574915886, 0.10211553424596786, -0.19234943389892578, -0.10706185549497604, -0.0750090479850769, -0.08676720410585403, -0.19650235772132874, 0.07832735031843185, 0.20061518251895905, -0.02341054193675518, 0.025112733244895935, 0.002105787629261613, 0.07634435594081879, -0.08862262964248657, 0.14613854885101318, -0.09404785931110382, 0.1016993522644043, -0.011646823957562447, -0.14971859753131866, 0.06957456469535828, 0.004578458610922098, 0.050347987562417984, 0.22044581174850464, 0.04165910556912422, -0.14906653761863708, 0.1350344866514206, 0.030459657311439514, 0.20958562195301056, -0.09695626050233841, 0.07159940153360367, -0.004714753478765488, 0.06794121861457825, -0.03585882484912872, -0.020417483523488045, 0.14187568426132202, -0.04755339026451111, 0.07659503817558289, 0.20707730948925018, 0.1605873554944992, 0.23644009232521057, 0.030736170709133148, -0.04891729727387428, -0.18669156730175018, 0.06261511147022247, 0.3172871768474579, -0.19412080943584442, 0.063309445977211, 0.0372389517724514, 0.19611331820487976, -0.07877642661333084, 0.1285335272550583, 0.19492638111114502, 0.050917286425828934, 0.037607595324516296, -0.10449086874723434, -0.1875554621219635, 0.05971258878707886, 0.0022475370205938816, 0.0360545814037323, 0.07575879991054535, -0.42398524284362793, -0.14148427546024323, 0.050991300493478775, -0.04146698862314224, -0.028102632611989975, 0.07916808128356934, 0.021497074514627457, -0.1227642148733139, 0.20036843419075012, -0.08787069469690323, -0.1296592801809311, 0.09712465852499008, -0.019109155982732773, -0.01807340979576111, 0.08900272101163864, 0.3858592212200165, -0.03471456840634346, 0.01479484885931015, -0.1130906343460083, -0.16713333129882812, 0.14685378968715668, 0.09473466128110886, -0.028024641796946526, -0.2266230285167694, 0.06588701903820038, 0.06206008791923523, 0.19239409267902374, 0.19568392634391785, 0.03756087273359299, -0.1567637026309967, 0.07008135318756104, 0.016942156478762627, -0.24042420089244843, 0.23640227317810059, 0.049349792301654816, -0.25146734714508057, 0.24788148701190948, 0.26956984400749207, -0.003936281427741051, -0.12869587540626526, 0.11345446854829788, -0.11301252245903015, 0.0024864498991519213, 0.046039730310440063, -0.22889618575572968, 0.17761072516441345, -0.048932723701000214, -0.2740587890148163, -0.32757753133773804, 0.20332153141498566, 0.178254172205925, -0.008033551275730133, -0.24632896482944489, -0.2555830180644989, 0.006816623266786337, 0.16007156670093536, -0.026660341769456863, 0.04318208992481232, 0.02579467184841633, -0.13881815969944, 0.053873758763074875, -0.24463848769664764, 0.05986718460917473, 0.10834117978811264, 0.11393915861845016, 0.03673693910241127, -0.1683657020330429, 0.19895043969154358, -0.001982070505619049, -0.07187626510858536, 0.2713087201118469, -0.19972224533557892, 0.08403006941080093, 0.05976589024066925, -0.04557296633720398, 0.04893629997968674, 0.1255224645137787, 0.04196237400174141, 0.03568088263273239, 0.1978476196527481, -0.022676844149827957, -0.02420971356332302, -0.08735878020524979, 0.14733006060123444, 0.06350365281105042, 0.051509834825992584, -0.05666545405983925, 0.06722109764814377, 0.14806850254535675, 0.11442552506923676, 0.014947131276130676, 0.059206292033195496, 0.1887301206588745, 0.13593806326389313, -0.3440508246421814, -0.08369649201631546, -0.14016279578208923, 0.12772083282470703, -0.10594154894351959, -0.17604832351207733, 0.4875265955924988, 0.11864914000034332, -0.2017720490694046, 0.14504383504390717, -0.3480422794818878, -0.003892510198056698, 0.09932335466146469, -0.06007499620318413, -0.4415329694747925, 0.10489865392446518, 0.11239460110664368, 0.09203159809112549, 0.17567116022109985, -0.03603385388851166, 0.10976743698120117, 0.11118034273386002, -0.1281512826681137, -0.18772828578948975, -0.07779829204082489, -0.05773572996258736, -0.13387726247310638, 0.20711781084537506, 0.2165132761001587, 0.027524622157216072, 0.25502678751945496, -0.10884352028369904, 0.056403737515211105, 0.29485973715782166, 0.19279281795024872, 0.18924105167388916, -0.03654525429010391, 0.17503200471401215, -0.17339102923870087, 0.1906813383102417, -0.25124576687812805, -0.23602120578289032, -0.010706217028200626, -0.05256254971027374, -0.04018805921077728, -0.13484309613704681, 0.08596054464578629, 0.18409988284111023, -0.056636735796928406, -0.02760607749223709, 0.021847393363714218, 0.11415638774633408, 0.13977490365505219, -0.23106199502944946, -0.054995499551296234, 0.07929493486881256, -0.2540762722492218, 0.2963106632232666, 0.07972661405801773, -0.2467101663351059, 0.324408620595932, -0.13118398189544678, -0.040707431733608246, -0.47395068407058716, 0.033218808472156525, 0.10018130391836166, 0.3029569387435913, 0.07146143168210983, -0.008044103160500526], [0.28616270422935486, 0.3191632032394409, 0.13714352250099182, 0.10425747185945511, -0.16612836718559265, -0.1899338662624359, -0.19216258823871613, -0.2007579207420349, 0.1872694194316864, -0.16855718195438385, 0.19279636442661285, -0.0593605674803257, 0.14125260710716248, -0.031608372926712036, -0.061494436115026474, 0.15390236675739288, 0.2465527355670929, -0.048369407653808594, -0.12147220224142075, -0.10425014793872833, 0.0452759675681591, -0.08099106699228287, -0.0808088630437851, 0.0831625759601593, -0.1327574998140335, 0.17002686858177185, 0.18614788353443146, -0.12316708266735077, -0.03461252897977829, -0.14296592772006989, -0.22949643433094025, -0.22150787711143494, -0.06841327250003815, 0.12439358234405518, -0.07298029214143753, -0.11159730702638626, -0.09066805243492126, -0.22629719972610474, -0.17326213419437408, -0.039170075207948685, 0.3391815423965454, -0.2212139070034027, -0.17686054110527039, 0.12851493060588837, 0.08935128152370453, 0.09426327049732208, -0.1144612729549408, 0.055992241948843, 0.1454547941684723, 0.01411037053912878, -0.024970538914203644, 0.06245407089591026, 0.08283565193414688, 0.15939712524414062, 0.007838314399123192, -0.09167918562889099, -0.021604429930448532, 0.21282677352428436, 0.0010395830031484365, 0.10574116557836533, -0.11084475368261337, -0.006707681342959404, -0.22939062118530273, -0.18849949538707733, 0.05673818290233612, 0.06477633863687515, 0.6113248467445374, -0.1769396960735321, 0.1070108413696289, 0.1678878664970398, -0.018606899306178093, 0.0839138776063919, -0.08398249000310898, -0.33431127667427063, 0.1517784744501114, 0.07567259669303894, -0.022888442501425743, 0.2223648875951767, -0.20095649361610413, -0.13411469757556915, 0.1133439838886261, 0.07043573260307312, -0.09155142307281494, -0.08304321765899658, 0.011476573534309864, -0.1466384381055832, 0.1569804698228836, 0.06049603223800659, 0.06905175000429153, -0.09140639752149582, -0.06189423426985741, 0.18992449343204498, 0.0517842099070549, 0.07109881192445755, -0.11719126999378204, -0.23840950429439545, 0.38464123010635376, -0.22648704051971436, 0.08044316619634628, -0.17189514636993408, -0.11915529519319534, -0.12191879749298096, 0.07375014573335648, 0.12910927832126617, -0.16317754983901978, 0.1763889044523239, 0.21015433967113495, -0.08074765652418137, -0.02395494468510151, -0.1876150667667389, -0.1321180760860443, 0.039021413773298264, -0.08436158299446106, 0.20152246952056885, -0.2918805480003357, 0.2643073499202728, 0.5222046375274658, 0.050675347447395325, -0.03720730543136597, 0.22703604400157928, 0.04456762596964836, 0.17909693717956543, 0.08473606407642365, -0.02543005719780922, -0.12552520632743835, 0.12418097257614136, 0.14829279482364655, -0.003002887824550271, 0.06557249277830124, 0.0004642903804779053, -0.068940170109272, -0.011273376643657684, -0.08842260390520096, -0.011401429772377014, 0.08379458636045456, -0.050576385110616684, 0.046609483659267426, -0.00789167732000351, -0.03291802853345871, 0.02513391524553299, -0.09527174383401871, 0.0220445916056633, -0.025363124907016754, 0.023296378552913666, 0.07243960350751877, -0.009408392012119293, -0.053167905658483505, -0.04953703656792641, -0.08536332845687866, -0.033278994262218475, 0.011260248720645905, 0.09878557175397873, 0.005537122488021851, -0.09296795725822449, 0.026952795684337616, -0.031036682426929474, -0.0010650455951690674, 0.02038796991109848, 0.05208420008420944, -0.030031561851501465, 0.10578636080026627, -0.07359734177589417, -0.002886570990085602, 9.246915578842163e-05, -0.011432088911533356, -0.009868912398815155, 0.09805714339017868, -0.030220963060855865, -0.041505247354507446, -0.10380721837282181, -0.011297866702079773, -0.022772550582885742, 0.07422176748514175, 0.08602362126111984, -0.07184302806854248, 0.04457604140043259, 0.07688603550195694, -0.012675851583480835, -0.06650640070438385, -0.06974559277296066, 0.08107652515172958, 0.0947430208325386, 0.07801669090986252, 0.08381740003824234, 0.07621703296899796, 0.020427368581295013, -0.07246509194374084, 0.0012959912419319153, -0.09936412423849106, -0.09925705194473267, 0.09422092884778976, -0.0023540258407592773, -0.0368393138051033, 0.018212027847766876, -0.041910409927368164, 0.043629877269268036, -0.05251803621649742, 0.05376739054918289, 0.006943799555301666, -0.026488803327083588, 0.018629468977451324, 0.012406215071678162, 0.006434351205825806, 0.09002194553613663, 0.013954408466815948, -0.08290169388055801, 0.05002070218324661, -0.09480227530002594, -0.024201691150665283, -0.09898068010807037, -0.024178728461265564, 0.03172973543405533, 0.027720801532268524, -0.09759510308504105, 0.08243542164564133, 0.004566557705402374, 0.018336258828639984, -0.09178449958562851, 0.012921914458274841, -0.09640371799468994, -0.038144275546073914, -0.020289815962314606, 0.07697116583585739, 0.08434665948152542, -0.049244992434978485, -0.04523786902427673, 0.08146078139543533, -0.0820196270942688, -0.0212845578789711, -0.033507391810417175, -0.015557989478111267, 0.0710674300789833, -0.07246600091457367, -0.06926001608371735, 0.09952472895383835, 0.00965244323015213, 0.012515969574451447, -0.06633155047893524, -0.054429128766059875, -0.0706927478313446, 0.05763573199510574, 0.0847884938120842, 0.06348375231027603, 0.06820821017026901, -0.02910991758108139, 0.01371815800666809, -0.03438121825456619, -0.006661370396614075, 0.011664792895317078, -0.09173861891031265, 0.012090958654880524, 0.10500787943601608, 0.08955463021993637, 0.0934302881360054, 0.04760295897722244, 0.01699339598417282, -0.16499866545200348, -0.17976464331150055, 0.20495998859405518, 0.034503091126680374, 0.07465586066246033, -0.0815739631652832, 0.06865377724170685, 0.1886589229106903, 0.2177722454071045, -0.1023474633693695, 0.07882154732942581, 0.05376297980546951, -0.08490104973316193, 0.08092402666807175, 0.07005272805690765, -0.13406194746494293, -0.0034336058888584375, -0.08761081844568253, -0.07703910768032074, 0.010172265581786633, -0.28022411465644836, -0.10704241693019867, 0.06111421808600426, 0.14098207652568817, 0.05356920138001442, -0.043218087404966354, 0.1429131180047989, -0.10534253716468811, 0.07711091637611389, 0.016042467206716537, -0.0936470553278923, -0.19313178956508636, 0.06251391023397446, 0.098960280418396, -0.11293824017047882, -0.10407289117574692, 0.04005400463938713, -0.22954002022743225, 0.017155535519123077, -0.1121310219168663, -0.11198973655700684, 0.3788892924785614, 0.18061897158622742, 0.048172835260629654, -0.06391038000583649, 0.06314167380332947, -0.06492283940315247, 0.12164603173732758, -0.04366058483719826, -0.05362458527088165, 0.16020053625106812, -0.021450484171509743, 0.0016393685946241021, 0.02801343984901905, 0.05071401968598366, -0.14752322435379028, 0.09914428740739822, -0.16072840988636017, 0.16066974401474, 0.15729065239429474, 0.13183745741844177, -0.24835650622844696, 0.23980668187141418, 0.09159568697214127, 0.20110854506492615, 0.053098324686288834, -0.24911493062973022, 0.1120585948228836, -0.0267347302287817, 0.01347432006150484, 0.03751672804355621, 0.085357666015625, 0.10678736120462418, 0.279825359582901, 0.044878967106342316, -0.03427692502737045, -0.12150296568870544, 0.18819770216941833, -0.16589094698429108, 0.1348128318786621, 0.1618669629096985, -0.10504262149333954, -0.17889761924743652, 0.027110883966088295, -0.000441625714302063, 0.20964452624320984, -0.01812811940908432, -0.12091297656297684, -0.08680266886949539, -0.07268310338258743, 0.01778731495141983, -0.07419930398464203, -0.07668112963438034, -0.09000559896230698, 0.08445600420236588, 0.17406363785266876, -0.17480811476707458, -0.19178995490074158, -0.06134013086557388, -0.30197790265083313, 0.01306375302374363, 0.08467870950698853, -0.13667593896389008, -0.08223862946033478, 0.017284367233514786, 0.13955923914909363, -0.09682277590036392, -0.07578346133232117, -0.11434181779623032, -0.04986478015780449, -0.16030296683311462, -0.107415109872818, -0.07807935774326324, 0.14925335347652435, -0.1859472393989563, -0.2548910081386566, -0.25080958008766174, 0.12702608108520508, -0.21341915428638458, 0.07506988942623138, 0.2134467363357544, -0.052890595048666, 0.10714712738990784, 0.01974998600780964, -0.09914048761129379, -0.09437599033117294, 0.12431352585554123, -0.08894004672765732, 0.258355051279068, 0.28206300735473633, 0.20156241953372955, 0.23394331336021423, -0.10620269924402237, -0.11836523562669754, -0.18097653985023499, -0.2948184907436371, 0.05760250985622406, -0.17033764719963074, 0.12461686879396439, -0.017849134281277657, -0.07186920195817947, -0.037615299224853516, -0.15471379458904266, 0.08656581491231918, 0.07128888368606567, -0.14281658828258514, -0.1032593697309494, -0.08224091678857803, -0.17329029738903046, -0.21304981410503387, -0.11539547890424728, 0.03998863697052002, -0.222771555185318, 0.26023396849632263, 0.12055652588605881, 0.06686832010746002, -0.01507708802819252, -0.13556958734989166, -0.2538608908653259, -0.10039082169532776, -0.09272805601358414, 0.17709699273109436, -0.036858998239040375, -0.12793385982513428, -0.040963541716337204, -0.2275809943675995, -0.24221576750278473, -0.06030439957976341, 0.22672559320926666, -0.12802505493164062, -0.1035563126206398, 0.07237520813941956, 0.013003384694457054, 0.1328171342611313, -0.058316487818956375, 0.04796339198946953, 0.13365845382213593, 0.006425854749977589, -0.01242221798747778, -0.004735858179628849, 0.05572275072336197, 0.13130834698677063, 0.037793468683958054, -0.2319229245185852, -0.04756563901901245, 0.23264208436012268, -0.04919872060418129, 0.1320234090089798, -0.16362598538398743, -0.0641370490193367, -0.20115239918231964, -0.1794561892747879, -0.17184360325336456, -0.005470890086144209, 0.23421531915664673, -0.188698872923851, 0.09993679821491241, 0.07604716718196869, -0.11948401480913162, 0.09190722554922104, -0.10995226353406906, -0.2709692418575287, 0.18429915606975555, 0.0327291302382946, -0.06610766053199768, 0.18149662017822266, 0.010512224398553371, -0.1974090188741684, 0.06166417896747589, -0.21400806307792664, -0.09676037728786469, -0.08136775344610214, -0.09403952211141586, -0.1971287727355957, -0.001375151565298438, 0.0903167650103569, -0.10773419588804245, -0.06724895536899567, -0.011742744594812393, 0.11351201683282852, 0.1246504858136177, -0.0023940782994031906, -0.004320212174206972, -0.20392337441444397, 0.3384777009487152, -0.05607743188738823, 0.1443946808576584, -0.03431112691760063, -0.051144521683454514, -0.10447558760643005, 0.0904683917760849, -0.014939934946596622, -0.041099563241004944, 0.06277620792388916, 0.18823079764842987, -0.08377228677272797, 0.03006691299378872, -0.16203270852565765, -0.13710588216781616, 0.17962628602981567, -0.2643324136734009, 0.09826421737670898, -0.25393232703208923, 0.2323605865240097, 0.21473535895347595, -0.01910371333360672, -0.08467063307762146, 0.14001892507076263, 0.13134554028511047, 0.046505268663167953, 0.09293288737535477, 0.026969261467456818, 0.001053028623573482, 0.2823777198791504, 0.11581669747829437, -0.00473770359531045], [0.04390330612659454, 0.31957900524139404, 0.2912133038043976, -0.039779435843229294, -0.08508165925741196, 0.05606425181031227, -0.03691963106393814, -0.1908000409603119, -0.014008562080562115, -0.09025977551937103, 0.0536707378923893, -0.06150525435805321, -0.02686942182481289, -0.0452035516500473, -0.010492688976228237, -0.0597367100417614, 0.15836270153522491, -0.10453607141971588, 0.006831050850450993, -0.011480849236249924, -0.10795256495475769, -0.08189336955547333, -0.27612847089767456, 0.052443839609622955, -0.28653302788734436, 0.16278786957263947, 0.10277540236711502, 0.09661099314689636, 0.003356616012752056, -0.032535526901483536, -0.08326740562915802, -0.29939937591552734, -0.06275889277458191, 0.20916803181171417, -0.0366673581302166, -0.11100585758686066, -0.07721453905105591, -0.13730520009994507, 0.04991445690393448, -0.13458946347236633, -0.015283172950148582, -0.10362587124109268, -0.21659356355667114, 0.04271313548088074, 0.08718392252922058, 0.07705097645521164, -0.14184708893299103, 0.0532996691763401, 0.1331884115934372, 0.0010361201129853725, -0.005562369711697102, -0.06842286139726639, 0.04169410094618797, 0.0568634495139122, 0.1781216710805893, -0.2118493914604187, -0.012731344439089298, 0.1447991132736206, -0.17227518558502197, -0.08170817047357559, -0.24546653032302856, -0.1768084615468979, -0.219355970621109, -0.07101396471261978, -0.13801170885562897, 0.0596710741519928, 0.4566575586795807, -0.1911579668521881, 0.07519366592168808, 0.019097059965133667, 0.3645966649055481, 0.047358088195323944, -0.1679171770811081, -0.2729315161705017, 0.1266515552997589, 0.10949074476957321, -0.02576800435781479, 0.19731079041957855, -0.09952032566070557, 0.004003795795142651, -0.013515028171241283, -0.06046146899461746, -0.05434736609458923, -0.24322518706321716, -0.03688472509384155, -0.126154825091362, 0.09873402118682861, 0.0768536925315857, 0.07366205751895905, -0.11111441254615784, -0.05499716103076935, 0.11333905905485153, 0.13244622945785522, -0.16223110258579254, -0.1324397474527359, -0.12175227701663971, 0.2393990457057953, -0.2730119824409485, 0.07651032507419586, -0.35256442427635193, -0.10144991427659988, -0.09313476085662842, 0.10710316151380539, 0.11298009008169174, -0.08373534679412842, 0.10542391240596771, 0.29555636644363403, -0.06173562631011009, -0.2731257975101471, -0.13747945427894592, -0.015334448777139187, 0.1879849135875702, -0.11594631522893906, 0.20854392647743225, -0.2522190511226654, 0.082874596118927, 0.1615431010723114, -0.03444495424628258, -0.20383049547672272, 0.002921790350228548, -0.15111856162548065, 0.02616746351122856, 0.18791614472866058, -0.027668163180351257, -0.16126853227615356, 0.18186277151107788, 0.10207365453243256, 0.02857092209160328, 0.023347683250904083, -0.053602755069732666, -0.06742822378873825, -0.09684106707572937, -0.07302878051996231, -0.052445296198129654, 0.05700043588876724, 0.08904802054166794, -0.018212109804153442, 0.0765063688158989, -0.0635068416595459, -0.07925216853618622, 0.013579152524471283, 0.0067948997020721436, 0.09007281810045242, -0.028446845710277557, 0.06868916004896164, 0.08886932581663132, 0.06235545128583908, -0.060430921614170074, -0.055052999407052994, 0.031835995614528656, -0.08407946676015854, 0.016034387052059174, -0.06867272406816483, -0.09615327417850494, 0.02175135165452957, 0.07780266553163528, 0.07767689973115921, 0.0723993107676506, 0.006347663700580597, -0.05907832086086273, -0.019243858754634857, 0.03419617563486099, -0.034438878297805786, -0.05656765028834343, -0.04128256440162659, -0.07993002235889435, 0.03144489973783493, -0.10181146115064621, -0.08978606015443802, -0.0778236910700798, 0.09152498096227646, 0.08483634144067764, -0.046168386936187744, -0.08975771069526672, 0.05190833657979965, -0.08587675541639328, 0.06956847757101059, 0.10556923598051071, -0.0065878406167030334, 0.05418676882982254, -0.1051359623670578, 0.06782958656549454, 0.032971836626529694, 0.01056557148694992, 0.03949899226427078, 0.0166812464594841, 0.03732406347990036, -0.022847458720207214, 0.026054419577121735, 0.03818296641111374, -0.018503539264202118, -0.07394994795322418, -0.007570348680019379, 0.05770140141248703, 0.04458934813737869, 0.029669784009456635, 0.05343874543905258, 0.05523253232240677, 0.0600053146481514, -0.09501877427101135, -0.06619197875261307, 0.04029788821935654, 0.07886841148138046, 0.06246442347764969, -0.035541974008083344, 0.10685918480157852, 0.042554743587970734, 0.07286619395017624, -0.09080420434474945, -0.06524621695280075, 0.07277224212884903, 0.05533675104379654, -0.09175263345241547, -0.06660039722919464, 0.0617712065577507, -0.06818511337041855, 0.09717138856649399, -0.04891499876976013, 0.047675006091594696, 0.06860481947660446, 0.041332848370075226, 0.0919894203543663, -0.006582379341125488, -0.01105644553899765, -0.028125852346420288, 0.04665306955575943, -0.09943148493766785, 0.01588742434978485, 0.050810448825359344, 0.08486358076334, -0.01599966734647751, 0.0774979516863823, 0.08955401927232742, -0.04854267090559006, 0.056571803987026215, -0.07180880010128021, 0.09269719570875168, 0.0839894637465477, 0.04270043224096298, 0.017863862216472626, -0.04458940401673317, -0.015860609710216522, -0.0061367228627204895, 0.04084032028913498, 0.059614889323711395, -0.005244389176368713, 0.03656806796789169, 0.10323106497526169, 0.10041654855012894, -0.06511123478412628, 0.08614908903837204, 0.09607348591089249, -0.032557375729084015, 0.042645640671253204, -0.00013903528451919556, 0.09287842363119125, -0.1338435709476471, -0.1619068831205368, 0.21643078327178955, 0.16476494073867798, 0.0575183667242527, -0.10827481001615524, -0.08572445809841156, 0.055193040519952774, -0.009523062966763973, -0.04260488599538803, 0.12732014060020447, 0.13555338978767395, 0.06957505643367767, -0.08416508138179779, 0.09375663101673126, -0.04845971241593361, 0.09084419161081314, -0.13768818974494934, -0.01560176257044077, -0.047846630215644836, -0.039653077721595764, -0.06431757658720016, 0.05278340354561806, -0.02960539609193802, -0.007699828594923019, 0.16054180264472961, 0.08666642755270004, 0.0130646713078022, 0.012025136500597, 0.202191561460495, -0.016500260680913925, -0.0942063257098198, 0.013237091712653637, 0.10016713291406631, 0.09184330701828003, -0.03914482146501541, 0.01595468260347843, 0.04336092993617058, -0.07128600031137466, 0.06087319925427437, 0.04156047850847244, 0.13588595390319824, -0.023166576400399208, -0.031020479276776314, -0.05587824434041977, 0.018411558121442795, 0.07791181653738022, 0.060892701148986816, -0.13055694103240967, -0.08436468988656998, -0.03046935237944126, -0.09115245193243027, -0.06938493251800537, 0.1994393914937973, 0.12686891853809357, -0.05685305595397949, 0.14670835435390472, -0.11757996678352356, 0.19470517337322235, 0.13950206339359283, 0.010502548888325691, -0.08302877843379974, 0.12129002064466476, 0.13532063364982605, 0.07799400389194489, 0.0001933095045387745, 0.06101568788290024, 0.2076019048690796, -0.11336960643529892, -0.0966540053486824, 0.13019055128097534, 0.1367458701133728, -0.05190492048859596, 0.0472540482878685, -0.029132157564163208, 0.07562597841024399, 0.06503180414438248, -0.04388140141963959, -0.08701321482658386, 0.11831901967525482, 0.15100912749767303, 0.04209181293845177, -0.08708537369966507, 0.12177600711584091, 0.06725772470235825, 0.10748317092657089, -0.11627018451690674, -0.03511827066540718, -0.10082166641950607, 0.040090277791023254, -0.01743987388908863, -0.1920500546693802, 0.14827214181423187, 0.07052095979452133, 0.07634392380714417, -0.00372371356934309, -0.08082886785268784, -0.10702601820230484, 0.04002959281206131, -0.07868610322475433, 0.014598718844354153, 0.03416574001312256, 0.028747644275426865, -0.01726720668375492, 0.005114652682095766, 0.1764250546693802, -0.15780453383922577, -0.04792395606637001, 0.05976530537009239, -0.13844214379787445, -0.028603898361325264, -0.11552620679140091, 0.013512232340872288, 0.14881516993045807, 0.0328935869038105, -0.2017652690410614, -0.09288564324378967, 0.18012802302837372, -0.11342188715934753, 0.03399936482310295, 0.034875284880399704, 0.022507701069116592, 0.09097729623317719, -0.12041052430868149, 0.09677030891180038, 0.01758141815662384, -0.011426839977502823, -0.07596566528081894, 0.019664080813527107, 0.42473527789115906, 0.2586701810359955, -0.09603211283683777, 0.0037587652914226055, -0.10967510938644409, -0.03272588923573494, -0.13868573307991028, -0.07837929576635361, -0.125273197889328, 0.09218095988035202, -0.030907781794667244, -0.06164916604757309, -0.04058324545621872, 0.0712798535823822, -0.11691457778215408, 0.024682438001036644, -0.11616770178079605, 0.08022738993167877, -0.07768832892179489, 0.04429265111684799, -0.1965101659297943, -0.2280738800764084, -0.05406257510185242, -0.14699789881706238, 0.10370557010173798, 0.13794128596782684, 0.03330158814787865, 0.18391969799995422, 0.04189499467611313, -0.13586357235908508, -0.25516277551651, -0.09465958178043365, 0.13832984864711761, -0.10848469287157059, -0.11257816106081009, -0.040041860193014145, -0.12051093578338623, 0.092716284096241, -0.1687403917312622, 0.06865589320659637, -0.1487211138010025, -0.02428538352251053, 0.15632393956184387, 0.11148520559072495, 0.1737252175807953, -0.12614020705223083, 0.1327948123216629, 0.10817728191614151, -0.072024405002594, -0.12918435037136078, 0.016527770087122917, 0.1794651299715042, 0.1269700676202774, 0.047446444630622864, -0.08532141894102097, -0.12520286440849304, 0.22046948969364166, -0.14871880412101746, -0.005426065530627966, -0.2324078530073166, -0.2444864958524704, -0.11652340739965439, -0.15450581908226013, -0.14375972747802734, -0.016550512984395027, 0.299424946308136, -0.016315868124365807, 0.16461053490638733, 0.08015378564596176, 0.27593955397605896, 0.018911218270659447, -0.03468172252178192, -0.3701326549053192, -0.008510693907737732, 0.011305318213999271, 0.06344477087259293, 0.16973866522312164, -0.10478705167770386, -0.1166105642914772, 0.018873268738389015, -0.26812705397605896, -0.10825880616903305, -0.1864493191242218, -0.11834245920181274, -0.12088939547538757, 0.0037994126323610544, 0.11999674886465073, -0.19399289786815643, 0.05992739647626877, -0.07201643288135529, 0.22382406890392303, 0.09175650030374527, -0.03007480315864086, -0.07401128858327866, -0.19661478698253632, 0.18696264922618866, -0.258786678314209, -0.007616031914949417, -0.2832869291305542, -0.20576611161231995, -0.13789470493793488, -0.055803410708904266, -0.07148825377225876, -0.18345415592193604, 0.09666109830141068, 0.13174143433570862, -0.14340025186538696, -0.25389474630355835, -0.20398485660552979, 0.0425289086997509, 0.1058901697397232, -0.2041226178407669, 0.17992210388183594, -0.22550848126411438, 0.07858650386333466, 0.04735942557454109, -0.011511084623634815, -0.1365407556295395, -0.01936325803399086, -0.14375117421150208, -0.019333694130182266, 0.053145479410886765, 0.02944677136838436, 0.06520222872495651, 0.2722340226173401, 0.07704883813858032, 0.09894365817308426], [-0.011327221989631653, 0.17278562486171722, 0.338370680809021, -0.049503814429044724, 0.18087080121040344, -0.015538586303591728, 0.4523734748363495, -0.11872082203626633, 0.025288596749305725, -0.061862632632255554, 0.22467419505119324, 0.020316792652010918, 0.06502807140350342, 0.07264392077922821, -0.023480381816625595, -0.24883976578712463, 0.266798198223114, 0.025863423943519592, 0.02125825360417366, -0.044867824763059616, -0.14048469066619873, -0.2394810914993286, -0.2900349199771881, 0.09553754329681396, -0.18154720962047577, 0.15039174258708954, 0.005827595945447683, 0.19608071446418762, 0.15559576451778412, 0.0033473647199571133, -0.09075594693422318, -0.16216541826725006, -0.09372968971729279, 0.2118040919303894, -0.15818370878696442, 0.038292575627565384, 0.061960119754076004, -0.13287928700447083, 0.02480601891875267, 0.04077708721160889, 0.171814426779747, -0.08661297708749771, 0.010183961130678654, 0.09285871684551239, 0.00914026889950037, 0.08172142505645752, 0.09628234058618546, 0.17460587620735168, 0.09557419270277023, 0.013793805614113808, -0.10959658771753311, -0.09554454684257507, 0.2219710350036621, 0.11440686881542206, 0.15112081170082092, -0.014378707855939865, -0.10911757498979568, 0.1994916796684265, -0.19214388728141785, 0.019165154546499252, -0.23348869383335114, -0.3770659863948822, -0.22598789632320404, -0.1155342161655426, 0.12743882834911346, -0.15242019295692444, 0.34794536232948303, -0.19485235214233398, 0.16145466268062592, -0.031080923974514008, 0.7121126651763916, 0.1276874989271164, 0.011143844574689865, -0.419452428817749, 0.1887274533510208, -0.03501389920711517, 0.04507884010672569, 0.08553644269704819, -0.14937448501586914, -0.1488143652677536, 0.04828600957989693, -0.13549286127090454, 0.08743209391832352, 0.10244432836771011, -0.025258125737309456, -0.20783047378063202, 0.08285249769687653, 0.0795058161020279, 0.07511141896247864, -0.038308847695589066, -0.025102222338318825, 0.23462587594985962, 0.11787068843841553, -0.05481422692537308, -0.09108235687017441, -0.04359285160899162, 0.2997916340827942, -0.2114335298538208, 0.03828531131148338, -0.2677364647388458, -0.14007602632045746, 0.11462553590536118, 0.12075071781873703, 0.05399473384022713, 0.04685971140861511, 0.057936254888772964, 0.19304358959197998, 0.3295718729496002, -0.11631084233522415, -0.06255050003528595, -0.17048057913780212, 0.016296209767460823, -0.020018117502331734, 0.1982216238975525, -0.13930903375148773, -0.017764398828148842, -0.0317150242626667, 0.05171343311667442, -0.2713262140750885, -0.015591762028634548, -0.017720408737659454, -0.006036631762981415, 0.2051795870065689, 0.20380616188049316, 0.004164381418377161, 0.138965904712677, 0.14609667658805847, -0.1341727375984192, -0.02890639752149582, 0.0004446655511856079, 0.031804896891117096, -0.07867488265037537, -0.05914255231618881, -0.03897148370742798, 0.08360666781663895, 0.07704111188650131, 0.04283782094717026, -0.04661363735795021, -0.09978357702493668, 0.04793829470872879, 0.007700666785240173, -0.05742177739739418, 0.00885869562625885, -0.002899952232837677, 0.05666682869195938, 0.031704194843769073, 0.043398164212703705, -0.008527986705303192, -0.010027572512626648, -0.09676087647676468, -0.10535592585802078, -0.10027911514043808, -0.03958248347043991, -0.042581863701343536, -0.09314596652984619, -0.09773684293031693, 0.022348888218402863, 0.0448218509554863, 0.07156199961900711, 0.03522319346666336, 0.04642046242952347, -0.01974187046289444, 0.05422838777303696, -0.044517882168293, -0.010595954954624176, 0.06635008007287979, 0.002869032323360443, 0.022066868841648102, -0.01464977115392685, 0.017224982380867004, 0.09683874994516373, -0.017728954553604126, 0.03702428191900253, -0.07014313340187073, -0.09488880634307861, 0.044190265238285065, -0.09288392215967178, -0.0914590135216713, -0.007164709270000458, 0.07423312216997147, -0.0014496594667434692, -0.05512100085616112, 0.10634324699640274, -0.0613158643245697, -0.02568712830543518, 0.062408335506916046, 0.011701039969921112, -0.008807182312011719, 0.07307118922472, -0.06476938724517822, 0.07393021136522293, 0.10422756522893906, -0.0827072411775589, 0.09042830020189285, -0.025760717689990997, -0.004869870841503143, -0.029812216758728027, -0.027339980006217957, -0.021465830504894257, -0.07372713088989258, 0.08108266443014145, -0.004185564815998077, -0.02757992595434189, 0.07290873676538467, -0.08008373528718948, -0.07496992498636246, -0.0804888904094696, 0.07460268586874008, -0.07748745381832123, 0.10213089734315872, 0.036720968782901764, -0.07165829092264175, 0.017675407230854034, -0.09086458384990692, 0.07910000532865524, 0.06996063143014908, 0.01279979944229126, 0.01843806356191635, -0.007643498480319977, 0.023644082248210907, 0.0838959738612175, 0.0893232449889183, 0.04596170037984848, -0.004405371844768524, -0.06582232564687729, -0.018675506114959717, 0.033574290573596954, -0.04123826324939728, 0.050116173923015594, -0.052150577306747437, 0.05525236576795578, 0.09232688695192337, 0.0032948851585388184, 0.08553224056959152, 0.020790420472621918, 0.06727471202611923, 0.07291614264249802, -0.09503054618835449, 0.031390897929668427, -0.06128130108118057, 0.057709597051143646, 0.09951389580965042, 0.07732503861188889, 0.0008602216839790344, 0.04753319174051285, -0.054930273443460464, -0.009552963078022003, 0.09962863475084305, -0.06311830133199692, 0.07125415652990341, 0.013875551521778107, -0.009227730333805084, -0.0627051442861557, -0.012154296040534973, -0.0512450635433197, 0.05250891298055649, 0.008531119674444199, -0.0831904485821724, 0.15756748616695404, 0.1238015666604042, 0.0777217447757721, -0.0694221705198288, -0.14460879564285278, -0.0056974212639033794, 0.11785589158535004, -0.05349041521549225, 0.11178941279649734, 0.1271744668483734, 0.08763184398412704, 0.0420951321721077, 0.20312745869159698, 0.04131663963198662, -0.024447906762361526, -0.04483070969581604, -0.06307018548250198, -0.1458214670419693, -0.11132500320672989, -0.29003211855888367, 0.04664226248860359, -0.022361021488904953, 9.209208656102419e-05, 0.05127895623445511, -0.0321381576359272, 0.09422322362661362, 0.016871454194188118, 0.24595476686954498, 0.015428219921886921, -0.061947185546159744, -0.10054535418748856, 0.10793702304363251, -0.07715170830488205, -0.2920881509780884, -0.05936611816287041, -0.038060225546360016, 0.011339863762259483, -0.009346836246550083, -0.038025300949811935, 0.12050070613622665, -0.004735670518130064, -0.005183885805308819, -0.08579713106155396, 0.010442845523357391, -0.08107422292232513, -0.13137580454349518, -0.08192428946495056, 0.053481459617614746, 0.10286806523799896, -0.07998324930667877, -0.09446509927511215, 0.22684377431869507, 0.14181676506996155, -0.06934115290641785, 0.1917937844991684, -0.1356709897518158, -0.11524931341409683, -0.054993774741888046, -0.04346548020839691, -0.026692558079957962, 0.13439975678920746, -0.021305877715349197, -0.05055134370923042, -0.010878857225179672, 0.07706418633460999, 0.17056146264076233, -0.08191577345132828, -0.20541130006313324, 0.04020221531391144, 0.06081351637840271, 0.014609080739319324, 0.0449136421084404, -0.034878868609666824, 0.1156940907239914, 0.10424962639808655, -0.1447540819644928, -0.24176044762134552, -0.02065013349056244, 0.07540769129991531, -0.03234359994530678, -0.07261918485164642, -0.058085065335035324, -0.005310106556862593, 0.06481858342885971, -0.07592259347438812, 0.04508383199572563, -0.36485791206359863, 0.31525465846061707, 0.03385995328426361, -0.18192140758037567, 0.2566739022731781, 0.05149981379508972, -0.039343077689409256, 0.12569715082645416, -0.027193628251552582, -0.005546755623072386, 0.31605634093284607, -0.021354204043745995, -0.07414478808641434, -0.0030563478358089924, -0.03371070325374603, 0.055549897253513336, 0.057812441140413284, 0.21592696011066437, -0.22482217848300934, -0.1313503384590149, 0.02060774341225624, -0.27168160676956177, -0.07145161181688309, 0.04501098766922951, -0.01851234957575798, 0.1790858954191208, -0.03090890869498253, -0.050912074744701385, 0.1170491948723793, 0.22991013526916504, 0.0682583898305893, 0.04300827160477638, -0.06804008781909943, 0.03877628967165947, 0.15146984159946442, -0.13362334668636322, 0.037606533616781235, 0.09715137630701065, 0.09435064345598221, -0.047143492847681046, 0.09149555116891861, 0.2740376889705658, 0.360030859708786, 0.06652463972568512, 0.10518765449523926, 0.019760053604841232, 0.4229470193386078, -0.1070098951458931, 0.0178532674908638, 0.0775410532951355, 0.11677898466587067, -0.09022949635982513, 0.07286524027585983, 0.08950221538543701, 0.010006322525441647, -0.32439523935317993, 0.20708784461021423, 0.06130551919341087, 0.038460470736026764, 0.0021047897171229124, -0.11607126146554947, -0.23423610627651215, -0.2684006094932556, -0.10161694139242172, -0.24765759706497192, 0.07212831825017929, 0.08369278162717819, 0.24551571905612946, 0.14659109711647034, -0.0653410479426384, -0.15401247143745422, -0.17033816874027252, -0.029293222352862358, 0.17314161360263824, -0.18467700481414795, -0.08843106031417847, 0.0425383485853672, -0.07330416142940521, 0.054354697465896606, 0.04396291822195053, 0.027458297088742256, -0.08878804743289948, 0.11531878262758255, 0.1109389141201973, 0.16441918909549713, 0.02217191271483898, 0.0537685789167881, 0.13116948306560516, 0.12355687469244003, 0.07242579758167267, -0.07530922442674637, 0.05684657394886017, 0.14760775864124298, 0.04710668697953224, 0.23120267689228058, -0.1213575229048729, -0.12367032468318939, 0.2157837599515915, -0.18741323053836823, -0.13615994155406952, -0.20860490202903748, -0.3124881386756897, -0.38127604126930237, -0.17306235432624817, 0.016875365749001503, -0.14682897925376892, 0.15295185148715973, -0.013733684085309505, 0.1977064460515976, 0.04096737876534462, 0.5536152124404907, 0.11453787237405777, -0.008214307017624378, -0.32954609394073486, 0.1827106922864914, -0.007398591376841068, -0.028728069737553596, 0.2008255422115326, 0.05162585526704788, -0.18596062064170837, 0.14487721025943756, -0.14910398423671722, -0.0024542887695133686, 0.019059626385569572, -0.1386193335056305, 0.01956799440085888, 0.028027081862092018, 0.14668628573417664, -0.23473884165287018, 0.15981169044971466, 0.06564916670322418, 0.09151963889598846, 0.1973584145307541, -0.01979920268058777, -0.06390026211738586, 0.0024333761539310217, 0.1944320946931839, -0.24259674549102783, 0.1852412074804306, -0.17720912396907806, -0.07892747968435287, 0.019072121009230614, 0.15279527008533478, 0.10181014984846115, 0.11323424428701401, 0.13595238327980042, 0.2646380364894867, 0.0726926252245903, -0.2457067221403122, -0.046500273048877716, -0.1803474724292755, 0.16502709686756134, 0.0720544084906578, 0.1651642918586731, -0.11672230809926987, 0.032193318009376526, -0.09405627101659775, -0.041386112570762634, -0.22767099738121033, -0.02989570051431656, -0.07812686264514923, 0.018035888671875, 0.13923446834087372, 0.12967750430107117, 0.10844441503286362, 0.1906779408454895, 0.13891439139842987, -0.09309130907058716], [0.10954734683036804, -0.1241583526134491, 0.1768740713596344, 0.019581548869609833, 0.0784788727760315, -0.12809711694717407, 0.15941296517848969, -0.11867406964302063, -0.27069783210754395, -0.06806807965040207, -0.027308980002999306, -0.02123015746474266, 0.10540212690830231, 0.02053561620414257, -0.060527022927999496, -0.4634454548358917, 0.08291490375995636, 0.1743173599243164, 0.09159355610609055, 0.11220245808362961, -0.10139933973550797, -0.13541093468666077, -0.10216677188873291, -0.00492855766788125, -0.0888274535536766, 0.13385213911533356, 0.11706150323152542, 0.1990688294172287, 0.1300039291381836, -0.14557333290576935, -0.17659156024456024, -0.12106013298034668, -0.004011868499219418, 0.05019242316484451, -0.05892139673233032, 0.04042275249958038, -0.046989019960165024, -0.2141740769147873, 0.05136372148990631, 0.07546097040176392, 0.14146628975868225, -0.12791208922863007, 0.24399994313716888, -0.06483405828475952, 0.06326409429311752, 0.1540878713130951, 0.18975141644477844, 0.3976336121559143, 0.08229721337556839, -0.08578136563301086, 0.04286975413560867, 0.09161258488893509, 0.0704437717795372, 0.16337037086486816, 0.07760968804359436, -0.093732088804245, -0.0739089697599411, 0.12784424424171448, 0.0884942039847374, 0.06597303599119186, 0.005902543198317289, -0.38112112879753113, -0.1725364625453949, -0.015271437354385853, 0.2177606076002121, -0.1696227341890335, 0.15100662410259247, -0.20947429537773132, 0.04920448735356331, 0.005503018852323294, 0.27843621373176575, -0.005260250065475702, -0.05389990285038948, -0.3884750306606293, -0.07506288588047028, -0.0019948682747781277, 0.16469791531562805, -0.08650923520326614, -0.24355751276016235, -0.22498460114002228, 0.13537411391735077, -0.02302619069814682, 0.14580059051513672, 0.20734649896621704, -0.10820422321557999, -0.1788371056318283, 0.1233983114361763, 0.13037365674972534, -0.012011555954813957, 0.06830175220966339, 0.10847355425357819, 0.08766794204711914, -0.11234689503908157, -0.18527431786060333, -0.06447269022464752, 0.1696767508983612, 0.0675942674279213, -0.06550965458154678, 0.049351513385772705, 0.26020747423171997, 0.01567806676030159, 0.025522714480757713, 0.18620839715003967, 0.09186474233865738, 0.21722082793712616, -0.028448250144720078, 0.0701565071940422, 0.3424907624721527, -0.20008359849452972, -0.10023853182792664, -0.09193331748247147, 0.09499387443065643, -0.04203161597251892, 0.04050524905323982, -0.08543974906206131, -0.10719430446624756, -0.03314713388681412, -0.12582778930664062, -0.156657412648201, -0.1494058519601822, 0.012189161032438278, 0.12213010340929031, 0.056871045380830765, 0.1468520164489746, -0.17753615975379944, 0.07590910792350769, -0.17972834408283234, 0.07691158354282379, 0.09151235967874527, 0.053074516355991364, 0.018838219344615936, 0.02589360624551773, -0.010998718440532684, -0.02256336808204651, 0.0730985626578331, 0.015490882098674774, 0.05293894559144974, -0.07881731539964676, -0.09733632206916809, -0.09822799265384674, 0.02328009158372879, 0.06679292768239975, 0.05866537243127823, 0.06642422825098038, -0.02115599811077118, -0.05809943005442619, 0.05365077406167984, -0.07594290375709534, 0.0031925812363624573, 0.07516347616910934, 0.027289338409900665, 0.08741725236177444, 0.05563942342996597, -0.018137507140636444, -0.07503514736890793, 0.059525661170482635, -0.07058820128440857, 0.03954394906759262, -0.04919011890888214, 0.06868854910135269, -0.06638891994953156, 0.08977963775396347, 0.07649815827608109, -0.02040800452232361, -0.026449963450431824, -0.019959360361099243, -0.07114330679178238, -0.048942502588033676, 0.08685850352048874, 0.09320343285799026, 0.028298474848270416, -0.01808471977710724, 0.07452460378408432, -0.09653523564338684, -0.005139350891113281, 0.029417432844638824, 0.08965278416872025, -0.039599791169166565, -0.05692672356963158, 0.005331508815288544, 0.0751219317317009, -0.06981145590543747, -0.051801033318042755, 0.10318062454462051, 0.060308583080768585, 0.022333316504955292, 0.003711588680744171, 0.07089813798666, 0.06180427223443985, -0.07039487361907959, -0.05339948832988739, -0.042280904948711395, 0.008446700870990753, 0.08601880818605423, -0.0684422105550766, -0.03376968950033188, -0.06156964972615242, -0.08462180197238922, -0.013583175837993622, 0.00329725444316864, 0.10060065239667892, -0.005184285342693329, 0.037145428359508514, 0.09373315423727036, 0.08275743573904037, -0.08034970611333847, -0.005564108490943909, -0.02085009217262268, 0.030337415635585785, 0.09118080884218216, -0.0026331692934036255, 0.06777261942625046, -0.016551002860069275, 0.033086858689785004, -0.03768809139728546, 0.06253712624311447, 0.0538843497633934, 0.059503667056560516, 0.018356092274188995, -0.034556858241558075, -0.028730735182762146, 0.01963622123003006, -0.002863653004169464, -0.003643922507762909, 0.05236908048391342, -0.02353038638830185, 0.021335147321224213, 0.05494753271341324, 0.1038045659661293, -0.08643509447574615, 0.03888373821973801, 0.09818176180124283, 0.09577497094869614, -0.08600720763206482, -0.014538928866386414, 0.09773311764001846, -0.01746668666601181, -0.04099416732788086, -0.08805205672979355, 0.04247797280550003, 0.061372168362140656, 0.049942366778850555, -0.0880391076207161, -0.08411528170108795, -0.012459993362426758, 0.10224875062704086, 0.09192753583192825, -0.020039446651935577, -0.08296316862106323, -0.023535817861557007, -0.028723083436489105, 0.04463084787130356, -0.09965267032384872, -0.009310826659202576, -0.011727117002010345, 0.08817613869905472, 0.23486590385437012, 0.18461556732654572, 0.04114919528365135, -0.008902627974748611, 0.05535546690225601, -0.037379831075668335, -0.13007017970085144, 0.09003255516290665, -0.12393597513437271, 0.10781601071357727, 0.17001235485076904, 0.044870249927043915, 0.00018886668840423226, -0.0713554099202156, 0.29974013566970825, 0.05578840896487236, -0.0628572478890419, -0.07762107998132706, 0.08445043861865997, -0.07827674597501755, -0.12150243669748306, -0.18243402242660522, 0.00834440067410469, -0.1790209412574768, -0.050990037620067596, 0.08749764412641525, -0.1796972006559372, -0.048964694142341614, 0.07653767615556717, 0.3060770630836487, -0.14929601550102234, 0.02551654540002346, 0.007264628075063229, 0.15833158791065216, -0.15289323031902313, -0.3084637224674225, 0.0649247094988823, -0.09353139996528625, -0.05619519203901291, 0.17264455556869507, -0.06818994134664536, -0.05038759857416153, -0.1930905282497406, 0.009600735269486904, -0.16009406745433807, 0.059038057923316956, 0.004855907987803221, -0.0846439003944397, -0.06484193354845047, 0.07923424988985062, 0.03271133825182915, 0.0840422511100769, 0.048978567123413086, 0.16407035291194916, 0.11958731710910797, 0.05497019365429878, 0.1248786672949791, -0.06621141731739044, -0.18532973527908325, -0.05098600313067436, 0.06398966908454895, -0.033218421041965485, -0.05981341749429703, 0.14346186816692352, -0.1589507758617401, 0.05851782113313675, 0.2107856273651123, 0.10882356017827988, -0.1681322455406189, 0.11041514575481415, 0.09745769202709198, 0.19045251607894897, -0.1144951581954956, 0.11621586978435516, 0.07121852040290833, -0.038913942873477936, 0.053951915353536606, 0.010711363516747952, -0.28786614537239075, 0.09578562527894974, -0.09854766726493835, -0.022557271644473076, -0.05277031660079956, -0.1068040281534195, -0.21419481933116913, 0.14869461953639984, -0.15387465059757233, -0.03133171796798706, -0.3209618330001831, 0.23335932195186615, 0.0294265728443861, -0.14000959694385529, 0.09092136472463608, 0.01436949148774147, 0.026904655620455742, -0.06827586889266968, 0.05626332759857178, -0.15439416468143463, 0.2582782804965973, 0.13240642845630646, -0.05343149974942207, -0.06600912660360336, -0.010351319797337055, -0.02798348106443882, -0.13949714601039886, 0.09092094749212265, -0.0969659835100174, -0.05628117173910141, -0.0721307247877121, -0.27311617136001587, -0.15602760016918182, -0.04345875605940819, -0.033943984657526016, -0.12878386676311493, 0.06882448494434357, 0.2466592937707901, 0.10093817114830017, 0.29999619722366333, 0.018765129148960114, -0.12103962898254395, -0.007964309304952621, -0.017883937805891037, -0.03804817795753479, 0.04553917050361633, 0.10837116092443466, 0.0059480746276676655, -0.0802927166223526, -0.04526299238204956, 0.20576313138008118, 0.06411507725715637, 0.1315973848104477, 0.10976124554872513, 0.03391389176249504, -0.17409329116344452, 0.19133725762367249, -0.13346810638904572, -0.2692844271659851, -0.10907328873872757, 0.09803424030542374, -0.010092545300722122, 0.2758261263370514, 0.03911597654223442, -0.03739406168460846, -0.38028761744499207, 0.28004005551338196, 0.07549871504306793, 0.11659316718578339, 0.12284411489963531, -0.1003105491399765, -0.10536826401948929, -0.22081008553504944, -0.04894449561834335, -0.0933895856142044, 0.17833584547042847, 0.260250449180603, 0.13226336240768433, 0.11089117079973221, -0.15504203736782074, -0.18884749710559845, -0.010412633419036865, -0.059055157005786896, 0.009545807726681232, -0.12979361414909363, -0.006633725017309189, 0.04553964361548424, -0.10275844484567642, -0.023803086951375008, 0.24908393621444702, 0.1746368557214737, -0.17071880400180817, 0.3407846987247467, -0.1668941080570221, 0.07021505385637283, 0.12372912466526031, 0.17223429679870605, 0.15660837292671204, 0.07563871145248413, -0.038335733115673065, -0.08759894222021103, 0.03830726817250252, 0.1803155243396759, 0.03627586364746094, -0.030431095510721207, 0.013826261274516582, -0.1571711003780365, 0.14345435798168182, 0.04778943210840225, 0.06592005491256714, -0.054376933723688126, -0.31614309549331665, -0.21945548057556152, -0.035974178463220596, 0.3294426202774048, -0.1210399642586708, 0.04523115232586861, -0.11072254180908203, 0.023176783695816994, 0.08204527944326401, 0.3369761109352112, 0.052126459777355194, 0.06203554570674896, -0.33510300517082214, 0.06975790858268738, -0.149007648229599, 0.12142546474933624, -0.06549075245857239, -0.07869178801774979, -0.2220480889081955, 0.03253694251179695, -0.21678531169891357, 0.09654925763607025, 0.19409401714801788, -0.07904274761676788, -0.16327668726444244, 0.07934780418872833, 0.13500389456748962, -0.24185369908809662, 0.1524999737739563, 0.12283763289451599, 0.20852090418338776, 0.12506046891212463, -0.21196654438972473, -0.13846279680728912, 0.08383321017026901, 0.08640959113836288, -0.11093531548976898, 0.010768425650894642, 0.05382680147886276, -0.008096681907773018, 0.16971765458583832, 0.11127759516239166, 0.04844827204942703, 0.20487868785858154, 0.1115146055817604, 0.12647601962089539, 0.02745060808956623, -0.17201776802539825, -0.16722330451011658, -0.11411016434431076, 0.07304070889949799, -0.019756915047764778, 0.12233520299196243, 0.055839624255895615, -0.08230281621217728, -0.31514814496040344, 0.014347930438816547, -0.21371722221374512, -0.14075756072998047, -0.12824484705924988, 0.16597244143486023, 0.09334897994995117, 0.2777704894542694, -0.2893635630607605, 0.03891719877719879, -0.28018155694007874, 0.07952044904232025], [-0.13621653616428375, 0.011041460558772087, -0.12390191853046417, 0.27314293384552, 0.0022906213998794556, -0.1421653926372528, -0.3103770315647125, -0.24966903030872345, -0.1703665852546692, 0.15035904943943024, -0.061258599162101746, -0.0361064188182354, -0.07240065187215805, 0.12212212383747101, -0.09978121519088745, -0.19355571269989014, -0.05314087122678757, -0.11220820993185043, -0.004137994255870581, 0.173086479306221, -0.18910172581672668, -0.09655409306287766, 0.09100216627120972, -0.00814786460250616, 0.20215058326721191, 0.15893277525901794, 0.052803050726652145, 0.15998223423957825, 0.16265136003494263, -0.0031660795211791992, -0.15642954409122467, 0.08266117423772812, -0.08116593211889267, 0.10150269418954849, 0.2855556309223175, -0.007640093564987183, 0.05988219380378723, -0.10501319169998169, -0.13173681497573853, 0.2871834635734558, 0.15522991120815277, -0.03727930039167404, 0.10035663098096848, -0.07442954927682877, 0.06290332227945328, 0.1676669418811798, 0.2459174543619156, -0.05123260244727135, -0.1224532276391983, -0.060268305242061615, -0.1649511456489563, -0.12916268408298492, 0.1719498336315155, -0.07187578082084656, -0.017170213162899017, -0.2820691168308258, -0.08944084495306015, 0.06607983261346817, -0.0792040005326271, -0.03939802199602127, 0.087399423122406, 0.07986915856599808, -0.1604849100112915, -0.08640995621681213, -0.08928477764129639, -0.018330693244934082, 0.29384925961494446, -0.18085964024066925, 0.19181649386882782, 0.09195095300674438, -0.005365298595279455, 0.04151878133416176, 0.1635149121284485, -0.16176658868789673, 0.11945304274559021, -0.16310971975326538, 0.13257792592048645, -0.0013800191227346659, -0.1322002112865448, -0.15688742697238922, 0.0969582349061966, -0.25850343704223633, 0.18392321467399597, 0.005005775019526482, 0.21989089250564575, -0.07370243966579437, 0.10432058572769165, 0.10450708866119385, 0.06146940588951111, -0.08525597304105759, 0.11397548764944077, 0.07461456954479218, -0.05221569165587425, -0.1940944790840149, -0.28621673583984375, -0.2772664725780487, -0.14325183629989624, -0.03487328067421913, -0.02146894298493862, -0.061208974570035934, -0.13124218583106995, 0.1389545351266861, -0.11913810670375824, -0.22316958010196686, -0.04042179509997368, -0.05975321680307388, -0.1522570252418518, -0.02276637777686119, -0.10358501970767975, -0.17474085092544556, -0.22328655421733856, 0.0433846116065979, 0.29128867387771606, 0.11497291922569275, 0.18730150163173676, -0.10713165253400803, 0.0505196675658226, -0.12856604158878326, 0.018025511875748634, -0.16610945761203766, -0.1608789563179016, 0.16502496600151062, 0.011991907842457294, 0.1757485568523407, 0.10073962062597275, 0.11764807999134064, -0.1406548023223877, 0.04974379390478134, -0.022419825196266174, -0.05333311855792999, -0.04250096529722214, 0.1003253236413002, 0.025355838239192963, -0.04735865071415901, 0.054032839834690094, 0.07106994837522507, 0.03049587458372116, 0.012809894979000092, -0.009883970022201538, -0.06476788222789764, 0.029519490897655487, -0.044612493366003036, -0.04844818636775017, -0.03313727676868439, -0.0780920535326004, -0.0889296606183052, -0.030091434717178345, -0.08534672856330872, -0.06663715094327927, 0.0016682446002960205, -0.08432208746671677, -0.09946556389331818, 0.03683299571275711, 0.04268834739923477, 0.017772436141967773, 0.0210927352309227, -0.04880884289741516, 0.08385079354047775, -0.05804891139268875, 0.10546164959669113, -0.016317687928676605, -0.055077772587537766, 0.060629017651081085, -0.053525857627391815, 0.026281259953975677, 0.04274653643369675, 0.010778650641441345, 0.05866982787847519, 0.1047958955168724, -0.002208814024925232, 0.0910523310303688, -0.08917582035064697, 0.0981951430439949, 0.0465925857424736, -0.029887735843658447, 0.047673605382442474, -0.08140634000301361, -0.030038774013519287, -0.04106145352125168, 0.054207943379879, 0.10430530458688736, -0.10171368718147278, -0.06241164356470108, -0.03200925886631012, -0.013651840388774872, 0.010504938662052155, -0.06908762454986572, -0.03601401299238205, 0.0032934844493865967, -0.07063978910446167, -0.04643978178501129, 0.09041068702936172, -0.044992342591285706, -0.020039193332195282, -0.035267412662506104, 0.08146656304597855, -0.007104963064193726, 0.04619201272726059, -0.002223879098892212, 0.025936223566532135, 0.10287835448980331, 0.09180372208356857, 0.09811561554670334, -0.01472809910774231, 0.033486463129520416, 0.09901829808950424, 0.021565668284893036, -0.10642017424106598, -0.06593051552772522, -0.03351636230945587, -0.06140058487653732, 0.08261778205633163, 0.03942883759737015, -0.0372588187456131, 0.08837202936410904, 0.07112415879964828, 0.013094060122966766, -0.09600875526666641, 0.09521094709634781, 0.09324457496404648, -0.10437703132629395, 0.07069196552038193, 0.10253661125898361, -0.08614598214626312, -0.07562796771526337, -0.040827907621860504, -0.09811849892139435, 0.03224705904722214, -0.01737189292907715, -0.0850958526134491, -0.08970954269170761, -0.07545684278011322, 0.08682050555944443, -0.08162033557891846, 0.06800300627946854, 0.08347708731889725, -0.022345781326293945, 0.0719374343752861, 0.07752231508493423, 0.015241272747516632, 0.08525217324495316, 0.06876537948846817, -0.07960555702447891, -0.06803468614816666, -0.09580082446336746, 0.03518348187208176, 0.0937517061829567, -0.07030005753040314, 0.09412875026464462, 0.07591070979833603, 0.03369788080453873, 0.019491128623485565, -0.04875641316175461, -0.04506454989314079, 0.09377332776784897, 0.006990194320678711, 0.0017843275563791394, 0.14551125466823578, -0.14487068355083466, -0.18851220607757568, 0.007265601307153702, -0.12006854265928268, 0.14317075908184052, 0.04835611954331398, -0.2442302703857422, -0.03186660259962082, 0.12810109555721283, 0.12478415668010712, -0.03057168237864971, 0.0319456085562706, -0.018587883561849594, -0.07301241159439087, 0.011714420281350613, 0.04773562401533127, 0.09188061952590942, 0.04643808305263519, -0.13836908340454102, -0.11754941940307617, 0.13298924267292023, -0.14483869075775146, 0.030271317809820175, -0.010837859474122524, 0.0025065643712878227, 0.11027102172374725, 0.13394567370414734, 0.13336612284183502, -0.10202465206384659, 0.005776774138212204, 0.20166447758674622, 0.1113317608833313, 0.15230609476566315, -0.11739944666624069, 0.12627919018268585, -0.11960507929325104, -0.11404001712799072, -0.031906623393297195, 0.09845615923404694, -0.14016224443912506, 0.014980166219174862, -0.0843893438577652, -0.11031802743673325, -0.11347521096467972, -0.04034020006656647, 0.034351035952568054, 0.07027432322502136, 0.1710256189107895, 0.16760790348052979, -0.08723370730876923, -0.20015445351600647, -0.02106170356273651, -0.1636946052312851, -0.09417378902435303, 0.08803736418485641, 0.03629560023546219, -0.004654343239963055, -0.20669563114643097, -0.006519419606775045, 0.18266981840133667, 0.04196383059024811, 0.06913500279188156, 0.04219973087310791, 0.03145837411284447, -0.011665367521345615, -0.08606696128845215, -0.16896916925907135, 0.19338439404964447, -0.10310860723257065, 0.1429864764213562, -0.09533275663852692, 0.036878809332847595, 0.19181308150291443, 0.10388598591089249, -0.003394738771021366, 0.03439260646700859, 0.0006976885488256812, 0.12365780025720596, 0.04157838225364685, -0.10865304619073868, 0.14093178510665894, -0.033232223242521286, 0.13834023475646973, -0.009161260910332203, 0.02644537016749382, -0.07430857419967651, -0.14117397367954254, 0.005186331458389759, -0.005409497767686844, -0.06570040434598923, 0.059809859842061996, 0.08859365433454514, 0.0932980328798294, 0.04369170218706131, 0.08243632316589355, -0.062186792492866516, -0.013514457270503044, 0.07795388251543045, 0.01026856154203415, -0.04077555611729622, 0.04403012990951538, -0.1370500773191452, -0.029843483120203018, 0.11329495161771774, -0.04773062467575073, -0.025279199704527855, 0.03697391599416733, -0.09522581845521927, 0.08009163290262222, -0.05641091614961624, 0.03368310630321503, -0.2371067851781845, 0.05094987154006958, 0.24766574800014496, -0.03870772570371628, 0.057429999113082886, 0.2064339816570282, -0.11114316433668137, 0.16582223773002625, -0.07225758582353592, -0.0029686468187719584, 0.07536229491233826, -0.1343117356300354, 0.07187596708536148, -0.041439056396484375, 0.007150507066398859, -0.25282803177833557, -0.03854695335030556, -0.04597444459795952, 0.30875834822654724, -0.032702069729566574, -0.11827874928712845, -0.14520736038684845, -0.1444135457277298, -0.3178403675556183, 0.11160125583410263, 0.0970701351761818, -0.10255719721317291, 0.013841286301612854, 0.05165276303887367, -0.03612060099840164, -0.034099042415618896, -0.015074163675308228, 0.0368252694606781, 0.1190008893609047, 0.26618948578834534, -0.0962204560637474, -0.16698278486728668, 0.09552386403083801, -0.19867514073848724, 0.041774097830057144, 0.03711933642625809, -0.046485137194395065, 0.1121004968881607, 0.15897870063781738, -0.08603059500455856, -0.07831093668937683, -0.03305278345942497, -0.2403634935617447, 0.1531652957201004, 0.18976661562919617, -0.1375333070755005, 0.10000744462013245, -0.1424901783466339, -0.20446021854877472, 0.27874690294265747, 0.1461312621831894, 0.08389321714639664, -0.03820387274026871, -0.18967294692993164, 0.007578604388982058, 0.23195880651474, 0.19891785085201263, -0.04665396735072136, -0.12068471312522888, -0.24588260054588318, -0.2260952889919281, -0.12422184646129608, 0.25608038902282715, -0.023443935438990593, 0.0293296966701746, -0.2388455867767334, -0.1217234879732132, -0.024160025641322136, -0.1748724728822708, 0.0700005441904068, -0.011949112638831139, -0.02598942257463932, -0.02965487912297249, -0.0762682557106018, -0.2590537369251251, -0.06781654059886932, 0.06873265653848648, -0.027592569589614868, 0.2364610731601715, 0.06169383227825165, -0.10961513221263885, 0.07056915760040283, 0.04735540226101875, -0.22427579760551453, 0.16257213056087494, -0.1026480421423912, 0.09887435287237167, 0.029874632135033607, -0.06050033122301102, -0.1933327466249466, 0.0905756726861, -0.2180117517709732, 0.16268664598464966, 0.020287293940782547, 0.0681174099445343, 0.01405416615307331, 0.21376734972000122, 0.05008060857653618, -0.13743051886558533, -0.015528454445302486, 0.16496244072914124, 0.06194975972175598, -0.03858895227313042, -0.17693907022476196, -0.1166374534368515, -0.1723714917898178, -0.23103682696819305, -0.07479884475469589, -0.07458951324224472, -0.059820860624313354, -0.18218043446540833, 0.1574716866016388, -0.08022459596395493, -0.26212579011917114, 0.0604034923017025, -0.005158552899956703, -0.08155557513237, -0.134694442152977, -0.17812097072601318, -0.1821676641702652, -0.15540048480033875, 0.04358462244272232, 0.20159520208835602, 0.05971972271800041, 0.0711439847946167, -0.11182580888271332, -0.1572205126285553, -0.1337636411190033, 0.027236949652433395, -0.16850273311138153, -0.05922791734337807, 0.07834617793560028, 0.028470061719417572, 0.1761375367641449, 0.09186238795518875, 0.23963138461112976, -0.09267465025186539, 0.08187291771173477], [-0.14365254342556, 0.14008615911006927, -0.14718082547187805, 0.23446279764175415, -0.012769145891070366, -0.17393425107002258, -0.11717768013477325, -0.08725830167531967, -0.11608658730983734, 0.026438487693667412, 0.09872783720493317, -0.006626056972891092, 0.007273275870829821, 0.04124140739440918, 0.10686817765235901, -0.04268350452184677, -0.04713025316596031, 0.02383805625140667, 0.07551706582307816, 0.1949448585510254, -0.10972375422716141, -0.11466951668262482, 0.0044422149658203125, -0.10183046013116837, -0.034059781581163406, 0.18716508150100708, 0.003060739953070879, 0.2835833728313446, 0.19164419174194336, -0.1257627010345459, -0.11254855245351791, -0.019373666495084763, -0.03831480070948601, 0.06563195586204529, 0.060030099004507065, -0.12480519711971283, 0.14972048997879028, -0.025374095886945724, -0.06659900397062302, 0.29665809869766235, 0.09189816564321518, 0.037977419793605804, -0.028306342661380768, -0.06967958062887192, 0.10305900126695633, 0.19463372230529785, 0.06979266554117203, 0.026332100853323936, -0.04757139831781387, -0.01344582810997963, -0.16714945435523987, -0.29130735993385315, 0.3466496765613556, -0.07553485780954361, -0.15567108988761902, -0.0986330434679985, -0.0240652933716774, -0.006864029448479414, -0.2204352766275406, 0.041486091911792755, 0.06785004585981369, -0.03043391928076744, -0.08034995943307877, -0.028222696855664253, -0.2316264510154724, -0.05965586006641388, 0.11978523433208466, -0.10742651671171188, 0.16269643604755402, 0.2727578580379486, -0.08655111491680145, 0.00892071332782507, 0.1918230652809143, -0.08811424672603607, 0.1167045533657074, -0.04376227408647537, -0.10754203796386719, -0.016787264496088028, -0.04625800997018814, -0.07660000771284103, 0.18168525397777557, -0.0143026327714324, 0.15039189159870148, 0.02125287614762783, 0.10025623440742493, -0.002692789537832141, -0.021391121670603752, 0.014579972252249718, -0.031027447432279587, -0.10224764049053192, 0.13581745326519012, 0.032558005303144455, 0.03726876527070999, -0.04273386672139168, -0.039773646742105484, -0.04612157866358757, -0.1220775842666626, -0.07222575694322586, -0.13255423307418823, -0.22820255160331726, -0.15214765071868896, 0.12740494310855865, -0.012370031327009201, -0.05859854072332382, -0.05858997628092766, 0.023478126153349876, -0.14880868792533875, -0.06740136444568634, -0.10889387875795364, -0.04810047894716263, -0.05413231998682022, -0.06938271969556808, 0.08250046521425247, 0.0078087360598146915, -0.05123143643140793, -0.25785234570503235, -0.01824638620018959, -0.12365446984767914, -0.0056451959535479546, -0.051133155822753906, -0.12242336571216583, 0.019451774656772614, 0.03726472333073616, 0.14801163971424103, 0.1776193529367447, 0.1648392528295517, -0.10126620531082153, -0.04618816822767258, -0.09828919172286987, 0.0003462061285972595, 0.04109417647123337, 0.047883786261081696, 0.06411934643983841, -0.09015412628650665, -0.08929510414600372, -0.06776058673858643, 0.002335287630558014, -0.05196632444858551, -0.07864086329936981, -0.01544634997844696, 0.10179726034402847, 0.06428804248571396, 0.04887867718935013, 0.018194161355495453, 0.09884687513113022, -0.018296778202056885, -0.06845375895500183, -0.08961842209100723, 0.0026932433247566223, 0.07566515356302261, -0.027212537825107574, -0.014790341258049011, 0.008212447166442871, -0.10439176112413406, -0.06832527369260788, 0.06821439415216446, 0.07798067480325699, 0.05096270889043808, 0.08801063150167465, 0.0772201344370842, -0.037107981741428375, -0.07677455246448517, -0.04355132579803467, 0.10224056988954544, -0.04128393530845642, 0.051511459052562714, 0.09693924337625504, -0.048883214592933655, -0.08421570062637329, -0.0525418184697628, -0.03054206073284149, 0.0535116121172905, -0.03163376450538635, 0.04160483926534653, -0.08752565085887909, -0.04396604001522064, -0.0724368691444397, 0.0016775727272033691, -0.02914699912071228, -0.10218429565429688, 0.04778685420751572, -0.05498099699616432, -0.08311796188354492, 0.038767047226428986, 0.08228690177202225, 0.06422137469053268, 0.001146756112575531, -0.07748204469680786, 0.10561177879571915, 0.05388735979795456, 0.10653717070817947, -0.06738076359033585, -0.051974453032016754, 0.09512775391340256, 0.0001803264021873474, -0.014231592416763306, 0.04953805357217789, 0.053398214280605316, 0.04148939996957779, 3.0077993869781494e-05, -0.0374942272901535, -0.07873009145259857, -0.02387508749961853, 0.00595797598361969, 0.06108621507883072, 0.10641736537218094, -0.0011571794748306274, -0.10233177244663239, 0.0013320818543434143, 0.09213276952505112, 0.0028045475482940674, -0.10672088712453842, -0.03722593933343887, 0.030471540987491608, -0.025498926639556885, 0.09225869923830032, -0.05620044469833374, 0.0973493680357933, -0.027539856731891632, -0.07793596386909485, -0.07275302708148956, -0.08339307457208633, -0.019894622266292572, 0.03129053860902786, 0.09225768595933914, -0.020673513412475586, 0.09555796533823013, -0.09538426995277405, 0.10077536851167679, -0.02863956242799759, -0.057456620037555695, 0.09749092906713486, 0.10356950014829636, -0.02971683442592621, 0.027725614607334137, 0.02983025461435318, 0.01533535122871399, -0.06225583702325821, 0.0842253640294075, 0.06268645077943802, 0.0510273203253746, -0.009819358587265015, 0.06516478210687637, 0.006566047668457031, 0.09339459985494614, 0.050011925399303436, -0.09767898172140121, -0.09700734913349152, 0.0012742206454277039, 0.028486348688602448, -0.03404273837804794, 0.027159936726093292, -0.07615832984447479, -0.0881766676902771, -0.09018318355083466, -0.002983398735523224, 0.057407476007938385, 0.26117581129074097, -0.0971740335226059, -0.21392787992954254, -0.018706774339079857, -0.07513009011745453, 0.08272358030080795, 0.004233492538332939, -0.08466340601444244, 0.09898406267166138, -0.036999285221099854, -0.008252725936472416, 0.058808162808418274, 0.07996875047683716, 0.06078720837831497, -0.093137726187706, -0.08239515125751495, 0.07227352261543274, 0.13485658168792725, 0.14684121310710907, -0.06543751806020737, -0.03157529979944229, -0.06576931476593018, -0.044545356184244156, 0.08816393464803696, 0.0014010949525982141, -0.09704684466123581, 0.15492473542690277, 0.18378224968910217, 0.08462724089622498, -0.10991030931472778, -0.09952322393655777, 0.07622262090444565, 0.017365701496601105, 0.07797937095165253, -0.11546158790588379, 0.04291582852602005, -0.022408831864595413, -0.11057933419942856, 0.13902439177036285, 0.13219338655471802, -0.04281946271657944, -0.037186939269304276, 0.020415691658854485, 0.011250333860516548, -0.08121709525585175, 0.04961421340703964, -0.10100812464952469, -0.10470443218946457, 0.09526467323303223, 0.15059001743793488, -0.04972012713551521, -0.18356911838054657, 0.039770979434251785, 0.04453929513692856, -0.021277494728565216, 0.029912209138274193, -0.011670269072055817, 0.05585554614663124, -0.04024780914187431, 0.03859253227710724, 0.02310401014983654, -0.025545593351125717, 0.05872838571667671, 0.06985348463058472, 0.01674092561006546, -0.016972364857792854, 0.07093420624732971, -0.1624571681022644, 0.07124342024326324, -0.17643888294696808, -0.039070528000593185, 0.02258351258933544, -0.16882774233818054, 0.1712978035211563, -0.02270352654159069, -0.005147436633706093, -0.06410045176744461, -0.08392443507909775, 0.10363496840000153, -0.09212719649076462, -0.036087412387132645, 0.1420900821685791, 0.007054574321955442, 0.09527768194675446, 0.05748312920331955, -0.12388304620981216, -0.022410549223423004, -0.09948164224624634, -0.0026100222021341324, -0.11525537818670273, -0.08023365586996078, 0.058693937957286835, 0.038888391107320786, 0.015174517408013344, 0.03180430456995964, 0.04228914529085159, -0.03195641562342644, 0.05739825963973999, 0.08651290833950043, -0.0729735866189003, -0.05747538432478905, -0.030054237693548203, -0.1011044979095459, 0.017871901392936707, -0.06138187274336815, 0.041655030101537704, 0.08265218138694763, -0.11094581335783005, -0.1088678240776062, -0.04015616327524185, -0.04054985195398331, 0.133490651845932, -0.07966090738773346, 0.004615345038473606, 0.07461405545473099, -0.015122382901608944, 0.1081780195236206, 0.11256498098373413, -0.1476316899061203, 0.06798794120550156, 0.09334275126457214, -0.0994763895869255, -0.04113632068037987, -0.027889708057045937, 0.2030375748872757, -0.17038515210151672, 0.029284680262207985, -0.19876158237457275, 0.19763487577438354, -0.13388963043689728, 0.1601765751838684, -0.07793549448251724, -0.05072401091456413, -0.19204893708229065, -0.19849170744419098, -0.0766250267624855, 0.0972704216837883, 0.04005483165383339, -0.08628188818693161, -0.07401484996080399, 0.07968184351921082, -0.03386048972606659, -0.20692604780197144, -0.007151410449296236, -0.0151602141559124, 0.04186802729964256, 0.18549856543540955, -0.017221085727214813, -0.09758862853050232, 0.07154353708028793, -0.05334044247865677, -0.020591186359524727, 0.12922199070453644, -0.004288438707590103, 0.22404751181602478, 0.28412872552871704, -0.0875595435500145, -0.08886942267417908, 0.05643210560083389, -0.20147916674613953, 0.19381234049797058, 0.004932796582579613, -0.1125958263874054, 0.19407635927200317, -0.18267430365085602, -0.06296183913946152, 0.1919276863336563, 0.20484215021133423, -0.08389291167259216, 0.000802963855676353, 0.07463251799345016, 0.03309362381696701, 0.06780147552490234, 0.049938324838876724, -0.06359697878360748, -0.14622333645820618, 0.05219566822052002, -0.03731977194547653, -0.2299862802028656, 0.36556053161621094, -0.06284237653017044, 0.007677061483263969, -0.1733674705028534, -0.012401161715388298, 0.055918317288160324, -0.12386732548475266, 0.005359725095331669, 0.09853962063789368, 0.07138845324516296, -0.11959574371576309, 0.02015089988708496, -0.2610052227973938, -0.014604862779378891, 0.013280104845762253, -0.024746106937527657, 0.13088184595108032, 0.2386191338300705, -0.07588765025138855, 0.04943090304732323, 0.2160821408033371, -0.17908059060573578, 0.07695403695106506, -0.09849413484334946, -0.08504501730203629, -0.10218747705221176, -0.12433090806007385, 0.037433281540870667, 0.2098957598209381, -0.009364534169435501, 0.23246270418167114, 0.057278260588645935, 0.001962629845365882, -0.05482142046093941, -0.015505452640354633, 0.012751990929245949, -0.07512936741113663, 0.09950468689203262, 0.058572858572006226, 0.0614054873585701, -0.058147747069597244, -0.15784116089344025, -0.10047135502099991, -0.2322312742471695, -0.015977829694747925, 0.03170118108391762, -0.06154920533299446, -0.3086586892604828, -0.1341705173254013, 0.19825513660907745, 0.005023439414799213, -0.05074451491236687, -0.1712147742509842, -0.05808000639081001, -0.05523281916975975, -0.07598928362131119, -0.03751634806394577, -0.014590037986636162, -0.09664987772703171, 0.023641759529709816, 0.051570527255535126, 0.12939967215061188, -0.026979731395840645, -0.27614060044288635, -0.3019402325153351, 0.05128787085413933, -0.07795321196317673, -0.18445175886154175, 0.008654738776385784, 0.09285446256399155, -0.009335704147815704, 0.19925552606582642, 0.14544452726840973, 0.1508980691432953, 0.09136322140693665, -0.054607804864645004], [-0.20201745629310608, 0.10086259245872498, -0.09279085695743561, -0.06345930695533752, -0.07483459264039993, -0.132065549492836, 0.054927438497543335, -0.04183772951364517, -0.10327216982841492, 0.13988682627677917, 0.10493379831314087, -0.08703381568193436, -0.1427130103111267, -0.07751395553350449, 0.1103253960609436, -0.09222649037837982, -0.05778007209300995, -0.06378618627786636, 0.2472260296344757, 0.12230634689331055, -0.10401095449924469, -0.014757612720131874, -0.0026404615491628647, 0.0617748498916626, -0.01483493484556675, 0.3158096671104431, -0.13444948196411133, 0.15401282906532288, 0.27702924609184265, -0.11882501095533371, 0.02151392586529255, -0.0174733754247427, -0.3064305782318115, 